{"learner":{"attributes":{},"feature_names":[],"feature_types":[],"gradient_booster":{"model":{"cats":{"enc":[],"feature_segments":[],"sorted_idx":[]},"gbtree_model_param":{"num_parallel_tree":"1","num_trees":"200"},"iteration_indptr":[0,1,2,3,4,5,6,7,8,9,10,11,12,13,14,15,16,17,18,19,20,21,22,23,24,25,26,27,28,29,30,31,32,33,34,35,36,37,38,39,40,41,42,43,44,45,46,47,48,49,50,51,52,53,54,55,56,57,58,59,60,61,62,63,64,65,66,67,68,69,70,71,72,73,74,75,76,77,78,79,80,81,82,83,84,85,86,87,88,89,90,91,92,93,94,95,96,97,98,99,100,101,102,103,104,105,106,107,108,109,110,111,112,113,114,115,116,117,118,119,120,121,122,123,124,125,126,127,128,129,130,131,132,133,134,135,136,137,138,139,140,141,142,143,144,145,146,147,148,149,150,151,152,153,154,155,156,157,158,159,160,161,162,163,164,165,166,167,168,169,170,171,172,173,174,175,176,177,178,179,180,181,182,183,184,185,186,187,188,189,190,191,192,193,194,195,196,197,198,199,200],"tree_info":[0,0,0,0,0,0,0,0,0,0,0,0,0,0,0,0,0,0,0,0,0,0,0,0,0,0,0,0,0,0,0,0,0,0,0,0,0,0,0,0,0,0,0,0,0,0,0,0,0,0,0,0,0,0,0,0,0,0,0,0,0,0,0,0,0,0,0,0,0,0,0,0,0,0,0,0,0,0,0,0,0,0,0,0,0,0,0,0,0,0,0,0,0,0,0,0,0,0,0,0,0,0,0,0,0,0,0,0,0,0,0,0,0,0,0,0,0,0,0,0,0,0,0,0,0,0,0,0,0,0,0,0,0,0,0,0,0,0,0,0,0,0,0,0,0,0,0,0,0,0,0,0,0,0,0,0,0,0,0,0,0,0,0,0,0,0,0,0,0,0,0,0,0,0,0,0,0,0,0,0,0,0,0,0,0,0,0,0,0,0,0,0,0,0,0,0,0,0,0,0],"trees":[{"base_weights":[-9.997983E-6,-2.5704334E-4,3.8852412E-3,9.2428236E-4,-9.2546566E-4,3.202945E-3,7.5213704E-3,6.755305E-4,3.0671349E-3,-1.1689595E-3,4.6184153E-4,2.3642452E-3,4.3900004E-3,1.1056284E-2,2.4815532E-3,1.1522307E-4,1.1446598E-3,3.76129E-3,1.4769284E-3,-1.273887E-3,1.2164303E-3,3.1420603E-4,3.2861892E-3,4.237431E-3,1.986077E-3,3.8614774E-3,7.3021348E-3,6.314976E-3,1.6436541E-2,1.479841E-2,-8.255533E-5,4.663095E-4,-3.779224E-4,1.6297315E-3,1.8601193E-5,3.4500782E-3,5.536266E-3,1.0870172E-3,2.4284413E-3,-1.7354804E-3,-1.025244E-3,5.4526154E-4,3.964852E-3,-1.6580881E-5,8.6056156E-4,5.274772E-3,4.0901318E-4,3.4573118E-3,6.987778E-3,1.7850181E-3,4.1261036E-3,6.3874596E-3,3.333358E-3,7.896905E-3,5.529794E-6,7.984345E-3,4.661573E-4,1.793916E-2,-0E0,1.559087E-3,-0E0,1.312504E-4,-9.961853E-5,6.304174E-5,-1.0076992E-4,-9.836324E-5,3.1749438E-5,4.8097674E-5,1.8645113E-4,-7.73949E-6,7.270533E-5,3.7135542E-4,1.5872128E-4,6.767406E-4,1.26582E-4,1.1788631E-4,-0E0,2.4493888E-4,-0E0,-1.1789508E-4,-1.7740182E-4,-6.1185194E-5,-1.2482998E-4,3.272663E-5,7.253778E-4,6.9322565E-4,2.8820528E-4,-1.0002061E-5,2.7126816E-4,6.64497E-5,3.3396127E-4,5.385283E-4,-0E0,-0E0,1.7156708E-4,3.5301407E-4,-0E0,3.816583E-4,1.2215989E-3,1.8861679E-4,-0E0,1.1243959E-3,2.6683835E-4,6.485819E-4,-0E0,3.6019812E-4,-0E0,6.874601E-4,1.3800546E-3,8.1239204E-4,-0E0,5.8690086E-5,-0E0,1.3241089E-3,2.010587E-3,2.608166E-5,-0E0],"categories":[],"categories_nodes":[],"categories_segments":[],"categories_sizes":[],"default_left":[0,0,0,0,0,0,0,0,0,0,0,0,0,0,0,0,0,0,0,0,0,0,0,0,0,0,0,0,0,0,0,0,0,0,0,0,0,0,0,0,0,0,0,0,0,0,0,0,0,0,0,0,0,0,0,0,0,0,0,0,0,0,0,0,0,0,0,0,0,0,0,0,0,0,0,0,0,0,0,0,0,0,0,0,0,0,0,0,0,0,0,0,0,0,0,0,0,0,0,0,0,0,0,0,0,0,0,0,0,0,0,0,0,0,0,0,0],"id":0,"left_children":[1,3,5,7,9,11,13,15,17,19,21,23,25,27,29,31,33,35,37,39,41,43,45,47,49,51,53,55,57,59,61,63,65,67,69,71,73,75,77,79,81,83,85,87,89,91,93,95,97,99,101,103,105,107,-1,109,111,113,-1,-1,-1,115,-1,-1,-1,-1,-1,-1,-1,-1,-1,-1,-1,-1,-1,-1,-1,-1,-1,-1,-1,-1,-1,-1,-1,-1,-1,-1,-1,-1,-1,-1,-1,-1,-1,-1,-1,-1,-1,-1,-1,-1,-1,-1,-1,-1,-1,-1,-1,-1,-1,-1,-1,-1,-1,-1,-1],"loss_changes":[1.591167E-1,1.2307773E-1,2.3364872E-2,2.9618002E-2,3.371553E-2,7.6043084E-3,2.5946036E-2,1.3137847E-2,5.884681E-3,2.1229304E-2,5.814441E-3,2.8622113E-3,4.08379E-3,2.0314597E-2,2.1852715E-2,4.007434E-3,1.478399E-2,1.2921207E-3,3.1774724E-4,9.048149E-3,6.06373E-3,2.6343563E-3,3.4457296E-3,6.11268E-4,1.1867061E-3,2.883736E-3,1.3233423E-3,3.880728E-3,8.916728E-3,1.0775514E-3,1.8983947E-4,3.2548564E-3,4.0626633E-3,4.9067326E-3,6.296889E-4,1.159478E-3,2.0650085E-3,2.1288206E-4,1.4393125E-5,3.0967593E-4,4.6960115E-3,3.436476E-3,1.1320822E-3,1.7146493E-3,2.2390378E-3,1.5763938E-4,2.405798E-4,1.3877591E-4,7.3273014E-4,8.525392E-4,1.82482E-3,2.5740825E-4,2.0830855E-3,5.026553E-4,0E0,3.5341643E-4,1.2867726E-5,1.5249103E-4,0E0,0E0,0E0,1.0613145E-5,0E0,0E0,0E0,0E0,0E0,0E0,0E0,0E0,0E0,0E0,0E0,0E0,0E0,0E0,0E0,0E0,0E0,0E0,0E0,0E0,0E0,0E0,0E0,0E0,0E0,0E0,0E0,0E0,0E0,0E0,0E0,0E0,0E0,0E0,0E0,0E0,0E0,0E0,0E0,0E0,0E0,0E0,0E0,0E0,0E0,0E0,0E0,0E0,0E0,0E0,0E0,0E0,0E0,0E0,0E0],"parents":[2147483647,0,0,1,1,2,2,3,3,4,4,5,5,6,6,7,7,8,8,9,9,10,10,11,11,12,12,13,13,14,14,15,15,16,16,17,17,18,18,19,19,20,20,21,21,22,22,23,23,24,24,25,25,26,26,27,27,28,28,29,29,30,30,31,31,32,32,33,33,34,34,35,35,36,36,37,37,38,38,39,39,40,40,41,41,42,42,43,43,44,44,45,45,46,46,47,47,48,48,49,49,50,50,51,51,52,52,53,53,55,55,56,56,57,57,61,61],"right_children":[2,4,6,8,10,12,14,16,18,20,22,24,26,28,30,32,34,36,38,40,42,44,46,48,50,52,54,56,58,60,62,64,66,68,70,72,74,76,78,80,82,84,86,88,90,92,94,96,98,100,102,104,106,108,-1,110,112,114,-1,-1,-1,116,-1,-1,-1,-1,-1,-1,-1,-1,-1,-1,-1,-1,-1,-1,-1,-1,-1,-1,-1,-1,-1,-1,-1,-1,-1,-1,-1,-1,-1,-1,-1,-1,-1,-1,-1,-1,-1,-1,-1,-1,-1,-1,-1,-1,-1,-1,-1,-1,-1,-1,-1,-1,-1,-1,-1],"split_conditions":[2.7790063E-3,9.977485E3,8.322958E-3,1E0,1.1554732E-3,1E0,1.8941432E-2,1E0,1E1,1E0,1E0,3.420652E3,3.8205653E-1,6.3819165E3,3.9632104E3,1.645E3,1.1E1,4.2571308E-4,3.034925E-1,2.8960325E-4,3.9509547E-1,1E0,3.925364E-1,6.395807E-3,4.1960034E-1,4.2953594E3,1E0,1E0,6.736831E-1,2.8338113E-1,5.3936665E3,2.6059067E-1,1.1991549E-3,2E0,8.051948E-4,4.3756142E-1,3.6250436E-1,3.378437E-1,5.01413E-1,1.7734225E4,1E0,3.9035377E-1,3.781205E-4,3.2827163E-1,4.1494817E-1,3.378437E-1,1.6146426E-3,7.60203E-1,3.4090292E-1,3.9395452E-1,4E0,3.5999575E-1,6.277777E-3,1E0,5.529794E-6,5.620646E3,1.6152683E-1,3E0,-0E0,1.559087E-3,-0E0,9E0,-9.961853E-5,6.304174E-5,-1.0076992E-4,-9.836324E-5,3.1749438E-5,4.8097674E-5,1.8645113E-4,-7.73949E-6,7.270533E-5,3.7135542E-4,1.5872128E-4,6.767406E-4,1.26582E-4,1.1788631E-4,-0E0,2.4493888E-4,-0E0,-1.1789508E-4,-1.7740182E-4,-6.1185194E-5,-1.2482998E-4,3.272663E-5,7.253778E-4,6.9322565E-4,2.8820528E-4,-1.0002061E-5,2.7126816E-4,6.64497E-5,3.3396127E-4,5.385283E-4,-0E0,-0E0,1.7156708E-4,3.5301407E-4,-0E0,3.816583E-4,1.2215989E-3,1.8861679E-4,-0E0,1.1243959E-3,2.6683835E-4,6.485819E-4,-0E0,3.6019812E-4,-0E0,6.874601E-4,1.3800546E-3,8.1239204E-4,-0E0,5.8690086E-5,-0E0,1.3241089E-3,2.010587E-3,2.608166E-5,-0E0],"split_indices":[6,4,6,19,6,12,6,12,27,19,19,4,50,4,4,4,27,6,43,6,38,12,82,6,50,4,15,47,77,79,4,50,6,27,6,43,41,85,38,4,25,51,6,60,68,85,6,44,38,54,27,47,6,19,0,4,1,25,0,0,0,27,0,0,0,0,0,0,0,0,0,0,0,0,0,0,0,0,0,0,0,0,0,0,0,0,0,0,0,0,0,0,0,0,0,0,0,0,0,0,0,0,0,0,0,0,0,0,0,0,0,0,0,0,0,0,0],"split_type":[0,0,0,0,0,0,0,0,0,0,0,0,0,0,0,0,0,0,0,0,0,0,0,0,0,0,0,0,0,0,0,0,0,0,0,0,0,0,0,0,0,0,0,0,0,0,0,0,0,0,0,0,0,0,0,0,0,0,0,0,0,0,0,0,0,0,0,0,0,0,0,0,0,0,0,0,0,0,0,0,0,0,0,0,0,0,0,0,0,0,0,0,0,0,0,0,0,0,0,0,0,0,0,0,0,0,0,0,0,0,0,0,0,0,0,0,0],"sum_hessian":[1.657253E5,1.5586647E5,9.858816E3,5.626949E4,9.9596984E4,8.325897E3,1.532919E3,5.0459863E4,5.8096235E3,8.478768E4,1.4809308E4,4.929941E3,3.3959565E3,8.886126E2,6.4430634E2,2.3093002E4,2.7366863E4,3.999511E3,1.8101125E3,8.125582E4,3.5318577E3,1.4108348E4,7.009599E2,7.8196844E2,4.1479727E3,2.9053333E3,4.9062332E2,4.8338962E2,4.05223E2,1.1691695E2,5.2738934E2,1.3607915E4,9.485087E3,1.9064992E4,8.30187E3,3.4533137E3,5.4619727E2,1.3600354E3,4.5007715E2,2.830354E4,5.295228E4,2.8688604E3,6.6299725E2,8.674422E3,5.433926E3,3.9344067E2,3.0751923E2,6.392618E2,1.4270668E2,3.836125E3,3.1184766E2,4.6773276E2,2.4376003E3,4.405751E2,5.004821E1,3.624707E2,1.2091892E2,3.6772885E2,3.7494137E1,1.09667534E2,7.2494116E0,3.393729E2,1.8801646E2,1.2306224E4,1.301692E3,5.1461553E3,4.3389316E3,3.3080427E3,1.575695E4,7.1876704E3,1.1142E3,2.9775125E3,4.7580118E2,4.0533932E2,1.4085796E2,1.3094026E3,5.0632782E1,4.447938E2,5.2833405E0,2.003087E3,2.6300451E4,1.8716615E4,3.4235668E4,2.794023E3,7.483739E1,1.5111426E2,5.11883E2,8.45358E3,2.2084177E2,5.074219E3,3.5970657E2,3.828538E2,1.0586882E1,2.0925308E2,9.826614E1,6.2425244E2,1.5009326E1,1.01810234E2,4.0896446E1,3.6752493E3,1.6087566E2,4.0207256E1,2.7164038E2,4.5974277E2,7.9899774E0,2.2479937E3,1.896067E2,3.9182748E2,4.874764E1,3.554435E2,7.0272045E0,1.1327123E2,7.6476884E0,1.3287671E2,2.3485216E2,2.4121336E2,9.815953E1],"tree_param":{"num_deleted":"0","num_feature":"87","num_nodes":"117","size_leaf_vector":"1"}},{"base_weights":[2.4103717E-6,7.91637E-4,-1.0140277E-3,5.0354225E-4,4.2781034E-3,-1.2019946E-3,6.535361E-4,-2.2469673E-4,1.1533746E-3,3.7801305E-3,1.582717E-2,-1.2700009E-3,-7.2362076E-5,3.3641045E-4,1.9377605E-3,3.7203563E-4,-6.2945375E-4,1.8922276E-3,3.3718185E-4,4.533766E-3,1.6960495E-3,1.6355113E-3,-0E0,-1.293473E-3,1.4782434E-3,-7.550133E-4,4.7374814E-4,1.8267398E-4,3.1569884E-3,6.901873E-4,3.7243988E-3,4.9847225E-4,-6.91961E-4,-1.047276E-3,3.100998E-5,2.0080653E-3,-3.6944987E-4,6.106805E-4,-1.2735298E-4,4.1723973E-3,1.4449556E-2,1.1757954E-3,1.6616E-2,-1.5379059E-3,-1.1098048E-3,-3.2471336E-5,3.2101134E-3,-0E0,-8.2957605E-4,1.2758279E-3,-4.048874E-4,4.5781545E-4,-3.017385E-4,4.294166E-3,-0E0,-1.692466E-4,2.153899E-3,4.224295E-3,4.0074787E-4,6.1161E-5,-1.0560321E-4,-9.961213E-5,5.9264374E-5,-1.4685413E-4,-7.757961E-5,-2.5024356E-5,7.7157616E-5,2.3080879E-4,1.2210039E-4,-8.959775E-5,1.2718629E-4,9.02289E-5,-0E0,-2.1879428E-5,8.283946E-5,4.4816412E-4,-3.4169327E-5,-0E0,1.6026503E-3,1.687089E-4,4.1205744E-6,1.841519E-3,-0E0,-5.989276E-5,-1.5757007E-4,-8.409057E-5,-1.2781953E-4,-0E0,-4.9943566E-5,-0E0,5.80131E-4,-1.04758015E-4,-1.1440937E-5,1.562819E-4,-0E0,2.3465784E-5,-1.5469134E-4,3.3162494E-6,9.788516E-5,-4.3889642E-5,4.133732E-4,4.5040293E-4,-0E0,-4.847324E-5,2.7209739E-5,1.3690298E-4,8.3936536E-4,-0E0,4.4747823E-4,9.139892E-5,-0E0],"categories":[],"categories_nodes":[],"categories_segments":[],"categories_sizes":[],"default_left":[0,0,0,0,0,0,0,0,0,0,0,0,0,0,0,0,0,0,0,0,0,0,0,0,0,0,0,0,0,0,0,0,0,0,0,0,0,0,0,0,0,0,0,0,0,0,0,0,0,0,0,0,0,0,0,0,0,0,0,0,0,0,0,0,0,0,0,0,0,0,0,0,0,0,0,0,0,0,0,0,0,0,0,0,0,0,0,0,0,0,0,0,0,0,0,0,0,0,0,0,0,0,0,0,0,0,0,0,0,0,0],"id":1,"left_children":[1,3,5,7,9,11,13,15,17,19,21,23,25,27,29,31,33,35,37,39,41,-1,-1,43,45,47,49,51,53,55,57,59,61,63,65,67,69,71,73,75,77,79,81,83,85,87,89,-1,91,93,95,97,99,101,-1,103,105,107,109,-1,-1,-1,-1,-1,-1,-1,-1,-1,-1,-1,-1,-1,-1,-1,-1,-1,-1,-1,-1,-1,-1,-1,-1,-1,-1,-1,-1,-1,-1,-1,-1,-1,-1,-1,-1,-1,-1,-1,-1,-1,-1,-1,-1,-1,-1,-1,-1,-1,-1,-1,-1],"loss_changes":[1.3286313E-1,9.32364E-2,2.2732884E-2,4.089026E-2,3.878233E-2,4.8647523E-3,2.735025E-3,9.8274425E-3,2.7293362E-2,1.0067128E-2,2.6270896E-3,3.9373487E-3,1.4375553E-3,2.22319E-3,2.6279064E-3,2.1740166E-3,6.801851E-3,6.4222068E-3,2.8112032E-3,1.587338E-2,1.2528071E-2,0E0,0E0,2.4636611E-3,1.5827591E-3,1.79603E-4,1.5105185E-3,7.658944E-4,1.2950317E-3,1.2626982E-3,4.2217644E-4,2.5335837E-3,6.8478246E-4,1.4858451E-3,1.9928063E-3,5.0195754E-3,9.336277E-4,2.466367E-3,6.317226E-4,7.1201622E-3,2.388619E-3,8.661228E-4,1.68641E-3,6.9911405E-4,1.3699643E-3,4.6677153E-5,1.8503915E-3,0E0,1.518674E-4,5.3242606E-4,7.924411E-4,7.2219287E-4,7.929234E-4,1.8611318E-4,0E0,8.9722795E-5,7.556244E-4,4.5383535E-4,3.4460096E-5,0E0,0E0,0E0,0E0,0E0,0E0,0E0,0E0,0E0,0E0,0E0,0E0,0E0,0E0,0E0,0E0,0E0,0E0,0E0,0E0,0E0,0E0,0E0,0E0,0E0,0E0,0E0,0E0,0E0,0E0,0E0,0E0,0E0,0E0,0E0,0E0,0E0,0E0,0E0,0E0,0E0,0E0,0E0,0E0,0E0,0E0,0E0,0E0,0E0,0E0,0E0,0E0],"parents":[2147483647,0,0,1,1,2,2,3,3,4,4,5,5,6,6,7,7,8,8,9,9,10,10,11,11,12,12,13,13,14,14,15,15,16,16,17,17,18,18,19,19,20,20,23,23,24,24,25,25,26,26,27,27,28,28,29,29,30,30,31,31,32,32,33,33,34,34,35,35,36,36,37,37,38,38,39,39,40,40,41,41,42,42,43,43,44,44,45,45,46,46,48,48,49,49,50,50,51,51,52,52,53,53,55,55,56,56,57,57,58,58],"right_children":[2,4,6,8,10,12,14,16,18,20,22,24,26,28,30,32,34,36,38,40,42,-1,-1,44,46,48,50,52,54,56,58,60,62,64,66,68,70,72,74,76,78,80,82,84,86,88,90,-1,92,94,96,98,100,102,-1,104,106,108,110,-1,-1,-1,-1,-1,-1,-1,-1,-1,-1,-1,-1,-1,-1,-1,-1,-1,-1,-1,-1,-1,-1,-1,-1,-1,-1,-1,-1,-1,-1,-1,-1,-1,-1,-1,-1,-1,-1,-1,-1,-1,-1,-1,-1,-1,-1,-1,-1,-1,-1,-1,-1],"split_conditions":[2.9864057E4,3.0746076E-3,1.1430035E-3,1E0,2.4000846E4,4.8859623E-1,1E0,3.7966177E3,9E0,9.5E1,1E0,5.143348E-1,6.234457E4,3.1553423E-1,3.472514E-3,2.6059067E-1,1.1554732E-3,3.7887168E-1,1.2E1,1.3621797E-2,2.906203E-1,1.6355113E-3,-0E0,2.8960325E-4,1E0,7.268368E1,1E0,1E0,1E0,1E0,1E0,3.2255602E-1,5.304234E-4,4.7056752E-4,2.021717E-3,9.344E3,7.266383E-4,7.158598E3,3.8621187E-1,1E0,9.88195E1,2E0,2.07E2,3.2530674E4,1E0,3E0,1E0,-0E0,6.036287E4,1E0,8E0,5.8049855E4,3.2827163E-1,1.2E1,-0E0,3.7887168E-1,1.6732936E5,1.4056517E3,1E0,6.1161E-5,-1.0560321E-4,-9.961213E-5,5.9264374E-5,-1.4685413E-4,-7.757961E-5,-2.5024356E-5,7.7157616E-5,2.3080879E-4,1.2210039E-4,-8.959775E-5,1.2718629E-4,9.02289E-5,-0E0,-2.1879428E-5,8.283946E-5,4.4816412E-4,-3.4169327E-5,-0E0,1.6026503E-3,1.687089E-4,4.1205744E-6,1.841519E-3,-0E0,-5.989276E-5,-1.5757007E-4,-8.409057E-5,-1.2781953E-4,-0E0,-4.9943566E-5,-0E0,5.80131E-4,-1.04758015E-4,-1.1440937E-5,1.562819E-4,-0E0,2.3465784E-5,-1.5469134E-4,3.3162494E-6,9.788516E-5,-4.3889642E-5,4.133732E-4,4.5040293E-4,-0E0,-4.847324E-5,2.7209739E-5,1.3690298E-4,8.3936536E-4,-0E0,4.4747823E-4,9.139892E-5,-0E0],"split_indices":[4,6,6,12,4,45,36,4,27,7,32,67,4,59,6,50,6,69,27,6,61,0,0,6,12,5,8,26,28,12,8,81,6,6,6,4,6,4,56,44,5,26,2,4,21,27,35,0,4,26,27,4,60,27,0,69,4,5,13,0,0,0,0,0,0,0,0,0,0,0,0,0,0,0,0,0,0,0,0,0,0,0,0,0,0,0,0,0,0,0,0,0,0,0,0,0,0,0,0,0,0,0,0,0,0,0,0,0,0,0,0],"split_type":[0,0,0,0,0,0,0,0,0,0,0,0,0,0,0,0,0,0,0,0,0,0,0,0,0,0,0,0,0,0,0,0,0,0,0,0,0,0,0,0,0,0,0,0,0,0,0,0,0,0,0,0,0,0,0,0,0,0,0,0,0,0,0,0,0,0,0,0,0,0,0,0,0,0,0,0,0,0,0,0,0,0,0,0,0,0,0,0,0,0,0,0,0,0,0,0,0,0,0,0,0,0,0,0,0,0,0,0,0,0,0],"sum_hessian":[1.6564917E5,9.3302125E4,7.234705E4,8.620836E4,7.093768E3,6.5072375E4,7.2746724E3,4.057947E4,4.5628887E4,6.810115E3,2.836528E2,6.1293707E4,3.7786687E3,5.8974814E3,1.3771909E3,1.630058E4,2.4278889E4,2.3884115E4,2.1744771E4,4.9653945E3,1.8447207E3,2.7539346E2,8.259319E0,6.0811254E4,4.8245416E2,1.7606027E3,2.018066E3,5.6272827E3,2.701983E2,8.447068E2,5.324842E2,1.4653765E4,1.6468162E3,1.4963506E4,9.315383E3,2.2762598E4,1.1215187E3,1.3821944E4,7.922827E3,4.801901E3,1.6349364E2,1.7900823E3,5.463837E1,2.5853082E4,3.495817E4,2.2736407E2,2.5509009E2,4.1459946E1,1.7191427E3,1.1142561E3,9.038099E2,3.7205425E3,1.9067405E3,2.1581018E2,5.4388107E1,4.8972464E2,3.5498212E2,4.3647714E2,9.600704E1,1.372014E4,9.336245E2,1.3946658E3,2.5215039E2,5.717968E3,9.245538E3,6.65396E3,2.6614226E3,1.6386994E4,6.3756035E3,8.955956E2,2.259231E2,9.360416E3,4.461529E3,7.3271978E3,5.9562964E2,4.5147705E3,2.871303E2,2.1478767E1,1.4201488E2,1.1729E3,6.171823E2,4.9270485E1,5.367884E0,1.1033761E3,2.4749705E4,1.36926045E4,2.1265568E4,4.0267982E1,1.870961E2,1.2269745E2,1.3239264E2,1.2100049E3,5.0913785E2,9.602541E2,1.5400208E2,5.237409E2,3.8006897E2,2.1561963E3,1.5643462E3,1.8722903E3,3.44502E1,2.0525085E2,1.0559324E1,4.1765488E2,7.206978E1,3.3063837E2,2.4343767E1,2.4942057E1,4.1153506E2,5.890033E1,3.710671E1],"tree_param":{"num_deleted":"0","num_feature":"87","num_nodes":"111","size_leaf_vector":"1"}},{"base_weights":[2.0840263E-5,7.431793E-4,-9.064573E-4,5.484817E-4,2.866899E-3,-9.847853E-4,1.0501979E-3,8.999784E-4,6.980743E-5,2.7187588E-3,7.237643E-3,-7.4217335E-4,-1.2874646E-3,1.807424E-3,-4.4303197E-5,1.0181029E-3,1.0747283E-4,-5.2014126E-5,7.4198656E-3,2.5916086E-3,6.1664334E-3,4.336057E-3,1.4200243E-2,-3.6690317E-4,-9.373204E-4,3.9291353E-4,-1.3667232E-3,1.5525697E-3,5.899795E-4,-8.0961525E-4,1.5856539E-3,1.0517307E-3,-9.4518333E-4,3.799753E-4,-9.702901E-4,5.5779406E-4,-4.0732863E-4,6.9338555E-4,1.4429681E-2,2.6710297E-3,-0E0,4.9448917E-3,1.7818271E-3,5.1716664E-3,-0E0,-0E0,1.5866806E-3,-4.9732294E-4,4.2414427E-4,-9.759306E-4,7.0416037E-4,-4.891721E-4,3.2568767E-3,-1.3810771E-3,2.3129336E-3,1.7655115E-3,-0E0,-1.3806108E-4,-0E0,5.9323944E-4,1.0313515E-4,1.0978504E-4,-4.2890922E-5,-1.04638144E-4,-0E0,5.8838764E-6,1.181067E-4,-1.0171893E-4,-0E0,4.073045E-5,3.002485E-4,-6.0614864E-5,1.4947403E-5,-0E0,1.9313893E-4,1.4908365E-3,-0E0,2.757137E-4,1.7892089E-5,6.117495E-4,-0E0,5.6067685E-4,-0E0,-5.6065684E-5,1.7651344E-4,-3.5029414E-5,1.0280616E-4,-1.0077142E-4,2.450799E-5,-0E0,1.608826E-4,1.1571869E-4,-9.976161E-5,1.6659357E-4,7.906418E-4,-1.3943996E-4,-5.1110135E-5,7.5874076E-4,-0E0,4.707343E-4,1.389475E-4,1.1299474E-4,-8.509982E-5],"categories":[],"categories_nodes":[],"categories_segments":[],"categories_sizes":[],"default_left":[0,0,0,0,0,0,0,0,0,0,0,0,0,0,0,0,0,0,0,0,0,0,0,0,0,0,0,0,0,0,0,0,0,0,0,0,0,0,0,0,0,0,0,0,0,0,0,0,0,0,0,0,0,0,0,0,0,0,0,0,0,0,0,0,0,0,0,0,0,0,0,0,0,0,0,0,0,0,0,0,0,0,0,0,0,0,0,0,0,0,0,0,0,0,0,0,0,0,0,0,0,0,0],"id":2,"left_children":[1,3,5,7,9,11,13,15,17,19,21,23,25,27,29,31,33,35,37,39,41,43,45,47,49,51,53,55,-1,57,59,61,63,65,67,69,71,73,75,77,-1,79,-1,81,-1,-1,-1,83,85,87,89,91,93,95,97,99,-1,-1,101,-1,-1,-1,-1,-1,-1,-1,-1,-1,-1,-1,-1,-1,-1,-1,-1,-1,-1,-1,-1,-1,-1,-1,-1,-1,-1,-1,-1,-1,-1,-1,-1,-1,-1,-1,-1,-1,-1,-1,-1,-1,-1,-1,-1],"loss_changes":[1.10984236E-1,3.8199052E-2,1.1106338E-2,1.427673E-2,4.025057E-3,4.9189404E-3,2.4489458E-3,4.487358E-3,3.323355E-2,2.4192855E-3,2.781218E-3,2.7186517E-3,4.2071566E-3,9.923102E-4,1.2562677E-3,2.8277151E-3,1.8459323E-3,7.717973E-3,2.700936E-2,1.3542473E-3,1.0508625E-3,4.275781E-4,5.516419E-4,1.3990845E-3,1.6390402E-3,3.647586E-3,1.4692508E-3,6.9579063E-4,0E0,3.5993528E-4,2.0117208E-5,2.9344745E-3,8.430483E-5,1.2268119E-3,6.578467E-5,4.453658E-3,2.5536239E-3,4.36423E-4,2.2226572E-3,1.2242198E-3,0E0,1.0318812E-3,0E0,3.3998163E-4,0E0,0E0,0E0,1.5553413E-3,9.1049215E-4,1.042733E-3,3.9346504E-4,8.1709836E-4,1.5510453E-3,1.498796E-4,9.881605E-4,1.0002828E-3,0E0,0E0,3.0660004E-4,0E0,0E0,0E0,0E0,0E0,0E0,0E0,0E0,0E0,0E0,0E0,0E0,0E0,0E0,0E0,0E0,0E0,0E0,0E0,0E0,0E0,0E0,0E0,0E0,0E0,0E0,0E0,0E0,0E0,0E0,0E0,0E0,0E0,0E0,0E0,0E0,0E0,0E0,0E0,0E0,0E0,0E0,0E0,0E0],"parents":[2147483647,0,0,1,1,2,2,3,3,4,4,5,5,6,6,7,7,8,8,9,9,10,10,11,11,12,12,13,13,14,14,15,15,16,16,17,17,18,18,19,19,20,20,21,21,22,22,23,23,24,24,25,25,26,26,27,27,29,29,30,30,31,31,32,32,33,33,34,34,35,35,36,36,37,37,38,38,39,39,41,41,43,43,47,47,48,48,49,49,50,50,51,51,52,52,53,53,54,54,55,55,58,58],"right_children":[2,4,6,8,10,12,14,16,18,20,22,24,26,28,30,32,34,36,38,40,42,44,46,48,50,52,54,56,-1,58,60,62,64,66,68,70,72,74,76,78,-1,80,-1,82,-1,-1,-1,84,86,88,90,92,94,96,98,100,-1,-1,102,-1,-1,-1,-1,-1,-1,-1,-1,-1,-1,-1,-1,-1,-1,-1,-1,-1,-1,-1,-1,-1,-1,-1,-1,-1,-1,-1,-1,-1,-1,-1,-1,-1,-1,-1,-1,-1,-1,-1,-1,-1,-1,-1,-1],"split_conditions":[2.9864057E4,1E0,1E0,7.158598E3,3.9411363E-1,9.561305E4,2.5269264E4,5E0,7.0710677E-1,4.3545765E-1,4.4019765E-1,1E0,3.840253E3,3.9035377E-1,3.4090292E-1,5.1877594E-1,1E0,1E0,2.8076768E4,7.491635E-1,2.4000846E4,4.8240831E-1,1.1608428E3,7.822762E4,4.847662E-1,1.596725E3,3.0715188E-1,3.9055878E-1,5.899795E-4,2.8074524E-1,2.8394785E4,3.7200832E-1,3.378437E-1,1.1585111E3,3.6970356E-1,4.105098E-1,3.1902522E-1,1.7040886E3,1E0,3.504085E-1,-0E0,4.2306265E3,1.7818271E-3,4.725408E-1,-0E0,-0E0,1.5866806E-3,3.7578657E-1,3.3524242E-1,3.5591507E-1,1E0,1E0,5E0,1.6344992E5,1E0,3.5653426E4,-0E0,-1.3806108E-4,1E0,5.9323944E-4,1.0313515E-4,1.0978504E-4,-4.2890922E-5,-1.04638144E-4,-0E0,5.8838764E-6,1.181067E-4,-1.0171893E-4,-0E0,4.073045E-5,3.002485E-4,-6.0614864E-5,1.4947403E-5,-0E0,1.9313893E-4,1.4908365E-3,-0E0,2.757137E-4,1.7892089E-5,6.117495E-4,-0E0,5.6067685E-4,-0E0,-5.6065684E-5,1.7651344E-4,-3.5029414E-5,1.0280616E-4,-1.0077142E-4,2.450799E-5,-0E0,1.608826E-4,1.1571869E-4,-9.976161E-5,1.6659357E-4,7.906418E-4,-1.3943996E-4,-5.1110135E-5,7.5874076E-4,-0E0,4.707343E-4,1.389475E-4,1.1299474E-4,-8.509982E-5],"split_indices":[4,19,19,4,50,4,5,25,57,68,45,25,5,51,38,53,9,25,4,43,4,50,5,4,77,5,39,78,0,41,5,55,85,4,51,50,45,5,32,77,0,5,0,68,0,0,0,77,43,80,36,25,25,5,20,4,0,0,36,0,0,0,0,0,0,0,0,0,0,0,0,0,0,0,0,0,0,0,0,0,0,0,0,0,0,0,0,0,0,0,0,0,0,0,0,0,0,0,0,0,0,0,0],"split_type":[0,0,0,0,0,0,0,0,0,0,0,0,0,0,0,0,0,0,0,0,0,0,0,0,0,0,0,0,0,0,0,0,0,0,0,0,0,0,0,0,0,0,0,0,0,0,0,0,0,0,0,0,0,0,0,0,0,0,0,0,0,0,0,0,0,0,0,0,0,0,0,0,0,0,0,0,0,0,0,0,0,0,0,0,0,0,0,0,0,0,0,0,0,0,0,0,0,0,0,0,0,0,0],"sum_hessian":[1.6571419E5,9.3212375E4,7.250181E4,8.542881E4,7.7835664E3,6.976078E4,2.741031E3,4.913705E4,3.629176E4,7.5521E3,2.3146643E2,3.8907996E4,3.0852787E4,1.6737607E3,1.0672703E3,4.2653062E4,6.4839854E3,3.5687652E4,6.041078E2,7.313148E3,2.3895213E2,1.7466286E2,5.680358E1,1.3487222E4,2.5420773E4,1.3326797E3,2.9520107E4,1.5999388E3,7.382187E1,7.6835834E2,2.989119E2,4.1985324E4,6.677404E2,5.2500024E3,1.2339828E3,1.3034756E4,2.2652898E4,3.1612506E2,2.879827E2,7.074471E3,2.3867682E2,2.253354E2,1.3616729E1,1.3847003E2,3.6192818E1,9.313868E0,4.748971E1,1.1687151E4,1.8000712E3,2.4896496E4,5.242776E2,9.928115E2,3.398682E2,2.9433092E4,8.701463E1,1.4602655E3,1.3967334E2,4.524066E2,3.1595175E2,1.2305432E1,2.8660645E2,4.0782797E4,1.2025266E3,6.2164105E2,4.609936E1,3.8375378E3,1.4124646E3,1.1863065E3,4.7676258E1,1.2318526E4,7.162287E2,1.6824727E4,5.828172E3,1.592565E2,1.5686858E2,2.797234E2,8.259319E0,6.799308E3,2.751629E2,1.744561E2,5.0879307E1,1.2847845E2,9.991587E0,1.1412624E4,2.7452658E2,7.16323E2,1.0837482E3,2.434486E4,5.516361E2,2.7263522E2,2.5164238E2,1.8755324E2,8.052583E2,2.7025903E2,6.960916E1,2.8875361E4,5.5773047E2,2.4343767E1,6.2670868E1,1.3405656E2,1.3262089E3,1.3715126E2,1.7880049E2],"tree_param":{"num_deleted":"0","num_feature":"87","num_nodes":"103","size_leaf_vector":"1"}},{"base_weights":[-5.0679014E-6,-1.9741422E-4,2.9725991E-3,6.447878E-4,-6.7941914E-4,2.723879E-3,9.340996E-3,4.5026006E-4,2.2933695E-3,-9.708863E-4,7.71266E-5,3.0777687E-3,3.147122E-4,1.9235428E-3,1.24905715E-2,2.603985E-5,8.0999656E-4,2.073126E-3,3.9457497E-3,-1.0392994E-3,7.609081E-4,-2.694059E-5,2.2060138E-3,2.5468303E-3,5.5610277E-3,-2.8822036E-4,2.3562345E-3,-0E0,2.1431458E-3,-0E0,1.3094507E-3,3.346099E-4,-3.6731764E-4,8.4931205E-4,-9.468262E-4,1.9940776E-3,5.1531163E-3,1.3576901E-2,3.3165405E-3,-1.1109866E-3,1.386464E-4,1.4791271E-4,2.6423768E-3,-2.0500486E-4,8.7068754E-4,1.6418669E-3,6.344089E-3,3.8060786E-3,1.7061378E-3,8.271437E-3,2.4025336E-4,2.9501256E-5,-8.621036E-5,-0E0,2.8657452E-3,2.5456704E-4,-0E0,2.8450022E-5,6.7805947E-4,-7.5526455E-5,3.500702E-5,6.989846E-5,1.3912356E-4,-1.04925784E-4,-0E0,2.1300258E-4,2.5880315E-6,5.4929144E-4,-0E0,-0E0,1.7630883E-3,4.0074644E-4,-0E0,-1.1405185E-4,1.174501E-5,6.0005527E-4,-3.5602843E-6,5.382194E-4,-1.6238348E-5,6.158693E-4,1.471671E-4,-2.3923543E-5,2.3925149E-4,2.0955308E-4,2.7132526E-5,2.5907662E-4,7.7427685E-5,3.5976777E-6,1.1183614E-3,3.2087407E-4,6.933763E-4,1.8872278E-4,-0E0,6.6148705E-4,1.3331281E-3,3.7993228E-5,-0E0,7.714578E-5,-0E0,3.304192E-4,-0E0],"categories":[],"categories_nodes":[],"categories_segments":[],"categories_sizes":[],"default_left":[0,0,0,0,0,0,0,0,0,0,0,0,0,0,0,0,0,0,0,0,0,0,0,0,0,0,0,0,0,0,0,0,0,0,0,0,0,0,0,0,0,0,0,0,0,0,0,0,0,0,0,0,0,0,0,0,0,0,0,0,0,0,0,0,0,0,0,0,0,0,0,0,0,0,0,0,0,0,0,0,0,0,0,0,0,0,0,0,0,0,0,0,0,0,0,0,0,0,0,0,0],"id":3,"left_children":[1,3,5,7,9,11,13,15,17,19,21,23,25,27,29,31,33,35,37,39,41,43,45,47,49,51,53,-1,55,-1,-1,57,59,61,63,65,67,69,71,73,75,77,79,81,83,85,87,89,91,93,95,97,-1,-1,99,-1,-1,-1,-1,-1,-1,-1,-1,-1,-1,-1,-1,-1,-1,-1,-1,-1,-1,-1,-1,-1,-1,-1,-1,-1,-1,-1,-1,-1,-1,-1,-1,-1,-1,-1,-1,-1,-1,-1,-1,-1,-1,-1,-1,-1,-1],"loss_changes":[9.439296E-2,6.3045256E-2,1.4604256E-2,1.7828362E-2,2.1885462E-2,7.877484E-3,6.951157E-3,7.6305447E-3,1.5384015E-3,8.493833E-3,6.2873745E-3,1.0207668E-2,1.7729556E-3,4.2076164E-5,1.3261251E-3,2.827904E-3,1.8715523E-3,5.5680797E-4,2.1429826E-3,5.906306E-3,2.788825E-3,4.101316E-3,2.2761687E-3,6.7774914E-3,1.9912858E-2,2.555773E-4,3.7468167E-4,0E0,3.6322483E-5,0E0,0E0,3.5596937E-3,2.854876E-3,1.9640177E-3,7.3691044E-5,1.1667181E-3,1.1425442E-4,1.5449352E-3,1.363541E-3,2.4577677E-3,4.546734E-3,3.8487217E-3,1.753862E-3,1.7282441E-3,2.8633485E-3,6.3756667E-4,3.0581458E-3,4.055485E-3,1.1493554E-3,5.8088005E-3,3.184474E-5,5.6471363E-5,0E0,0E0,2.915496E-4,0E0,0E0,0E0,0E0,0E0,0E0,0E0,0E0,0E0,0E0,0E0,0E0,0E0,0E0,0E0,0E0,0E0,0E0,0E0,0E0,0E0,0E0,0E0,0E0,0E0,0E0,0E0,0E0,0E0,0E0,0E0,0E0,0E0,0E0,0E0,0E0,0E0,0E0,0E0,0E0,0E0,0E0,0E0,0E0,0E0,0E0],"parents":[2147483647,0,0,1,1,2,2,3,3,4,4,5,5,6,6,7,7,8,8,9,9,10,10,11,11,12,12,13,13,14,14,15,15,16,16,17,17,18,18,19,19,20,20,21,21,22,22,23,23,24,24,25,25,26,26,28,28,31,31,32,32,33,33,34,34,35,35,36,36,37,37,38,38,39,39,40,40,41,41,42,42,43,43,44,44,45,45,46,46,47,47,48,48,49,49,50,50,51,51,54,54],"right_children":[2,4,6,8,10,12,14,16,18,20,22,24,26,28,30,32,34,36,38,40,42,44,46,48,50,52,54,-1,56,-1,-1,58,60,62,64,66,68,70,72,74,76,78,80,82,84,86,88,90,92,94,96,98,-1,-1,100,-1,-1,-1,-1,-1,-1,-1,-1,-1,-1,-1,-1,-1,-1,-1,-1,-1,-1,-1,-1,-1,-1,-1,-1,-1,-1,-1,-1,-1,-1,-1,-1,-1,-1,-1,-1,-1,-1,-1,-1,-1,-1,-1,-1,-1,-1],"split_conditions":[2.7790063E-3,1.0020443E4,5.638015E-1,1E0,6.946786E-4,7.379243E3,1.0567E4,1E0,4.2571308E-4,1E0,1E0,6.395807E-3,1E0,8.213205E2,1E0,1.1585111E3,4.643006E-1,4.2838073E-1,5.4566626E-4,4.8546252E-1,3.7199092E-1,1.8389613E-3,7.8841E3,1E0,2.0273784E3,4.4729803E-3,3.472514E-3,-0E0,4E0,-0E0,1.3094507E-3,5.108787E-1,1.3800692E-3,1E0,1.3471037E-3,3.677516E-1,3.360331E-4,1E0,4.3901756E-1,4.6002945E-1,7.268368E1,6.6967883E2,3.781205E-4,1.5277012E5,3E0,3.3467937E-1,1.1991549E-3,4.0248832E-1,6.277777E-3,1.3621797E-2,3.5182152E-2,4.2732E4,-8.621036E-5,-0E0,1E0,2.5456704E-4,-0E0,2.8450022E-5,6.7805947E-4,-7.5526455E-5,3.500702E-5,6.989846E-5,1.3912356E-4,-1.04925784E-4,-0E0,2.1300258E-4,2.5880315E-6,5.4929144E-4,-0E0,-0E0,1.7630883E-3,4.0074644E-4,-0E0,-1.1405185E-4,1.174501E-5,6.0005527E-4,-3.5602843E-6,5.382194E-4,-1.6238348E-5,6.158693E-4,1.471671E-4,-2.3923543E-5,2.3925149E-4,2.0955308E-4,2.7132526E-5,2.5907662E-4,7.7427685E-5,3.5976777E-6,1.1183614E-3,3.2087407E-4,6.933763E-4,1.8872278E-4,-0E0,6.6148705E-4,1.3331281E-3,3.7993228E-5,-0E0,7.714578E-5,-0E0,3.304192E-4,-0E0],"split_indices":[6,4,57,19,6,5,4,12,6,19,19,6,36,5,29,4,69,82,6,38,38,6,5,21,5,6,6,0,25,0,0,56,6,28,6,82,6,29,82,51,5,5,6,4,25,82,6,50,6,6,1,4,0,0,28,0,0,0,0,0,0,0,0,0,0,0,0,0,0,0,0,0,0,0,0,0,0,0,0,0,0,0,0,0,0,0,0,0,0,0,0,0,0,0,0,0,0,0,0,0,0],"split_type":[0,0,0,0,0,0,0,0,0,0,0,0,0,0,0,0,0,0,0,0,0,0,0,0,0,0,0,0,0,0,0,0,0,0,0,0,0,0,0,0,0,0,0,0,0,0,0,0,0,0,0,0,0,0,0,0,0,0,0,0,0,0,0,0,0,0,0,0,0,0,0,0,0,0,0,0,0,0,0,0,0,0,0,0,0,0,0,0,0,0,0,0,0,0,0,0,0,0,0,0,0],"sum_hessian":[1.6529102E5,1.5529411E5,9.99691E3,5.6450668E4,9.8843445E4,9.637639E3,3.592714E2,5.054808E4,5.9025913E3,7.144891E4,2.739454E4,8.366825E3,1.2708132E3,1.170268E2,2.422446E2,2.3323195E4,2.7224883E4,5.2637646E3,6.388265E2,6.878957E4,2.6593318E3,2.607397E4,1.3205692E3,6.927889E3,1.4389365E3,9.4391736E2,3.2689587E2,1.378781E1,1.0323899E2,1.4186088E1,2.280585E2,1.3212777E4,1.0110418E4,2.668514E4,5.3974255E2,5.1653115E3,9.845331E1,2.8167425E1,6.1065906E2,6.492343E4,3.8661423E3,2.0467238E3,6.1260803E2,2.1851434E4,4.222536E3,1.1846302E3,1.3593896E2,2.7244858E3,4.203403E3,9.404972E2,4.9843936E2,4.9600754E2,4.4790982E2,6.0607162E1,2.6628873E2,7.848535E1,2.4753641E1,1.3127286E4,8.549098E1,6.6523315E3,3.4580867E3,2.1036512E4,5.648629E3,5.0625275E2,3.3489796E1,4.78398E3,3.8133136E2,9.031607E1,8.137242E0,6.901138E0,2.1266287E1,5.0283337E2,1.0782566E2,6.347886E4,1.4445707E3,1.272078E2,3.7389346E3,1.3166354E2,1.9150602E3,1.306151E2,4.8199292E2,2.1606111E4,2.4532295E2,1.3317208E3,2.8908152E3,5.098021E2,6.748281E2,6.8423065E1,6.751591E1,2.3161387E3,4.0834723E2,3.7579485E3,4.4545468E2,7.2515576E2,2.1534146E2,4.193244E2,7.911494E1,9.46132E1,4.0139435E2,2.2676418E2,3.952455E1],"tree_param":{"num_deleted":"0","num_feature":"87","num_nodes":"101","size_leaf_vector":"1"}},{"base_weights":[3.665441E-6,-1.7029756E-4,2.7591547E-3,6.258045E-4,-6.182814E-4,2.4973943E-3,8.874758E-3,4.4191812E-4,2.1593887E-3,-9.4987435E-4,-3.1925963E-5,4.2419857E-3,2.0762824E-3,2.178161E-3,1.141498E-2,4.7927584E-5,7.75163E-4,2.759317E-3,5.920206E-4,-1.0008541E-3,5.269316E-4,4.9811363E-4,-3.766227E-4,3.6985427E-3,1.1136261E-2,2.4964274E-3,8.613327E-4,-0E0,2.434575E-3,1.226768E-2,1.7951203E-4,3.2474776E-4,-3.0628277E-4,1.297235E-3,3.6308948E-6,2.6371607E-3,8.10643E-3,1.4357169E-3,-8.4226274E-5,-1.0518817E-3,2.4048731E-4,2.7851912E-4,9.060285E-3,3.9941497E-4,6.3067563E-3,-7.1344775E-4,2.1949625E-5,4.147438E-3,9.7185466E-4,6.542175E-3,1.947595E-3,2.7274026E-3,-1.4906273E-4,6.015965E-4,3.4453159E-3,2.792603E-3,-0E0,1.6255185E-3,1.3330987E-3,2.786175E-5,6.493016E-4,-5.8246875E-5,6.2436964E-5,3.0785253E-5,1.5332659E-4,2.7348366E-5,-3.404957E-5,2.989488E-4,1.6883996E-4,2.053676E-3,2.4310731E-4,1.5304808E-4,-0E0,-2.796683E-5,5.678985E-5,-1.18499775E-4,-9.2615344E-5,3.15954E-4,-1.2217711E-5,-6.3853818E-6,3.6056325E-4,1.391059E-3,-0E0,9.497216E-5,-9.997362E-6,1.3992216E-3,1.2190329E-4,-7.667184E-5,-0E0,-4.573696E-6,1.5881662E-4,3.187205E-4,5.594521E-4,1.1085965E-4,-0E0,7.1491627E-4,-0E0,2.55829E-4,1.3750541E-3,-0E0,-7.2694835E-5,1.4111558E-4,4.3197683E-6,6.7327253E-4,-0E0,2.9263907E-4,-0E0,2.462306E-4,-0E0],"categories":[],"categories_nodes":[],"categories_segments":[],"categories_sizes":[],"default_left":[0,0,0,0,0,0,0,0,0,0,0,0,0,0,0,0,0,0,0,0,0,0,0,0,0,0,0,0,0,0,0,0,0,0,0,0,0,0,0,0,0,0,0,0,0,0,0,0,0,0,0,0,0,0,0,0,0,0,0,0,0,0,0,0,0,0,0,0,0,0,0,0,0,0,0,0,0,0,0,0,0,0,0,0,0,0,0,0,0,0,0,0,0,0,0,0,0,0,0,0,0,0,0,0,0,0,0,0,0],"id":4,"left_children":[1,3,5,7,9,11,13,15,17,19,21,23,25,27,29,31,33,35,37,39,41,43,45,47,49,51,53,-1,55,57,-1,59,61,63,65,67,69,71,73,75,77,79,81,83,85,87,89,91,93,95,-1,97,99,101,103,105,-1,107,-1,-1,-1,-1,-1,-1,-1,-1,-1,-1,-1,-1,-1,-1,-1,-1,-1,-1,-1,-1,-1,-1,-1,-1,-1,-1,-1,-1,-1,-1,-1,-1,-1,-1,-1,-1,-1,-1,-1,-1,-1,-1,-1,-1,-1,-1,-1,-1,-1,-1,-1],"loss_changes":[7.9968594E-2,5.5770107E-2,1.4702991E-2,1.5596086E-2,1.93737E-2,6.352853E-3,5.2609406E-3,6.517753E-3,5.2693225E-3,4.8559345E-3,6.6177263E-3,5.2336976E-3,3.6009476E-3,6.56558E-5,8.04089E-4,2.2741817E-3,1.0784235E-2,1.6902275E-3,1.1039118E-3,3.995795E-3,3.4434723E-3,7.459301E-3,3.036412E-3,1.5489049E-3,1.7862581E-3,3.724046E-3,9.660474E-4,0E0,3.716862E-5,1.2015402E-3,0E0,3.0675586E-3,2.5685225E-3,3.5713334E-3,1.0161796E-3,9.276848E-4,3.0499273E-3,1.1435151E-4,8.318087E-5,7.825121E-4,2.8061264E-3,2.6555934E-3,1.7345694E-3,3.9232075E-3,7.064434E-3,3.9244024E-4,1.2131982E-3,1.0725856E-3,2.9766728E-5,3.6069984E-4,0E0,8.123189E-3,7.3821306E-5,7.1115216E-4,1.6497833E-3,1.0617892E-5,0E0,7.723962E-5,0E0,0E0,0E0,0E0,0E0,0E0,0E0,0E0,0E0,0E0,0E0,0E0,0E0,0E0,0E0,0E0,0E0,0E0,0E0,0E0,0E0,0E0,0E0,0E0,0E0,0E0,0E0,0E0,0E0,0E0,0E0,0E0,0E0,0E0,0E0,0E0,0E0,0E0,0E0,0E0,0E0,0E0,0E0,0E0,0E0,0E0,0E0,0E0,0E0,0E0,0E0],"parents":[2147483647,0,0,1,1,2,2,3,3,4,4,5,5,6,6,7,7,8,8,9,9,10,10,11,11,12,12,13,13,14,14,15,15,16,16,17,17,18,18,19,19,20,20,21,21,22,22,23,23,24,24,25,25,26,26,28,28,29,29,31,31,32,32,33,33,34,34,35,35,36,36,37,37,38,38,39,39,40,40,41,41,42,42,43,43,44,44,45,45,46,46,47,47,48,48,49,49,51,51,52,52,53,53,54,54,55,55,57,57],"right_children":[2,4,6,8,10,12,14,16,18,20,22,24,26,28,30,32,34,36,38,40,42,44,46,48,50,52,54,-1,56,58,-1,60,62,64,66,68,70,72,74,76,78,80,82,84,86,88,90,92,94,96,-1,98,100,102,104,106,-1,108,-1,-1,-1,-1,-1,-1,-1,-1,-1,-1,-1,-1,-1,-1,-1,-1,-1,-1,-1,-1,-1,-1,-1,-1,-1,-1,-1,-1,-1,-1,-1,-1,-1,-1,-1,-1,-1,-1,-1,-1,-1,-1,-1,-1,-1,-1,-1,-1,-1,-1,-1],"split_conditions":[2.7790063E-3,1.0020443E4,5.638015E-1,1E0,6.1252556E-4,3.9632104E3,1.0567E4,1E0,1.1E1,1E0,1E0,1.8941432E-2,1E0,8.213205E2,1.2E1,1.1585111E3,1E1,8.1E1,1E0,4.8546252E-1,3.5828552E-1,1.95E2,1.0874035E-3,1.3528917E3,2.3085557E3,1.8941432E-2,8.322958E-3,-0E0,4E0,2E0,1.7951203E-4,5.108787E-1,1.7519841E-3,2E0,1.2E1,1E0,4.8716E3,8E0,4.3756142E-1,2.8960325E-4,3E0,3.9509547E-1,5.7300244E3,9E0,3E0,4.804909E-1,3.2827163E-1,1E0,3.2255602E-1,2.906203E-1,1.947595E-3,1.3621797E-2,5.3936665E3,2.9E1,1.8941432E-2,1E0,-0E0,3E0,1.3330987E-3,2.786175E-5,6.493016E-4,-5.8246875E-5,6.2436964E-5,3.0785253E-5,1.5332659E-4,2.7348366E-5,-3.404957E-5,2.989488E-4,1.6883996E-4,2.053676E-3,2.4310731E-4,1.5304808E-4,-0E0,-2.796683E-5,5.678985E-5,-1.18499775E-4,-9.2615344E-5,3.15954E-4,-1.2217711E-5,-6.3853818E-6,3.6056325E-4,1.391059E-3,-0E0,9.497216E-5,-9.997362E-6,1.3992216E-3,1.2190329E-4,-7.667184E-5,-0E0,-4.573696E-6,1.5881662E-4,3.187205E-4,5.594521E-4,1.1085965E-4,-0E0,7.1491627E-4,-0E0,2.55829E-4,1.3750541E-3,-0E0,-7.2694835E-5,1.4111558E-4,4.3197683E-6,6.7327253E-4,-0E0,2.9263907E-4,-0E0,2.462306E-4,-0E0],"split_indices":[6,4,57,19,6,4,4,12,27,19,25,6,22,5,27,4,27,7,29,38,39,7,6,5,4,6,6,0,25,27,0,56,6,27,27,28,4,7,43,6,27,38,5,27,27,56,73,12,81,57,0,6,4,7,6,34,0,26,0,0,0,0,0,0,0,0,0,0,0,0,0,0,0,0,0,0,0,0,0,0,0,0,0,0,0,0,0,0,0,0,0,0,0,0,0,0,0,0,0,0,0,0,0,0,0,0,0,0,0],"split_type":[0,0,0,0,0,0,0,0,0,0,0,0,0,0,0,0,0,0,0,0,0,0,0,0,0,0,0,0,0,0,0,0,0,0,0,0,0,0,0,0,0,0,0,0,0,0,0,0,0,0,0,0,0,0,0,0,0,0,0,0,0,0,0,0,0,0,0,0,0,0,0,0,0,0,0,0,0,0,0,0,0,0,0,0,0,0,0,0,0,0,0,0,0,0,0,0,0,0,0,0,0,0,0,0,0,0,0,0,0],"sum_hessian":[1.66284E5,1.5637611E5,9.907886E3,5.6229074E4,1.0014704E5,9.518245E3,3.8964032E2,5.026811E4,5.960967E3,6.386133E4,3.628571E4,1.8028448E3,7.7154004E3,1.18492226E2,2.711481E2,2.3172648E4,2.7095459E4,4.264224E3,1.6967427E3,6.1796145E4,2.0651824E3,1.4184174E4,2.2101537E4,1.6859878E3,1.1685709E2,5.670951E3,2.0444493E3,1.2767678E1,1.0572455E2,2.39269E2,3.1879107E1,1.31658E4,1.0006849E4,1.608258E4,1.1012879E4,4.1887266E3,7.549753E1,8.202E2,8.765426E2,5.9433723E4,2.3624211E3,2.0191545E3,4.6027786E1,1.3965167E4,2.1900737E2,1.2114193E4,9.987344E3,1.4157217E3,2.702661E2,8.423169E1,3.262541E1,5.25032E3,4.2063123E2,1.8940013E3,1.5044801E2,8.487936E1,2.0845192E1,3.0507584E1,2.0876141E2,1.3085197E4,8.06023E1,7.7999224E3,2.206926E3,3.1797686E3,1.2902812E4,6.335547E3,4.677332E3,2.9760164E3,1.2127101E3,1.7321302E1,5.8176228E1,7.7047327E2,4.9726746E1,7.9284326E2,8.369936E1,2.8478268E4,3.0955455E4,2.9069208E2,2.071729E3,1.8043994E3,2.1475502E2,2.791417E1,1.8113615E1,6.738713E3,7.2264536E3,7.8707436E1,1.4029994E2,1.1156759E4,9.574341E2,9.513332E3,4.740114E2,8.9448206E2,5.212396E2,2.3169424E2,3.8571877E1,7.743043E1,6.8012567E0,5.1811367E3,6.918296E1,2.6421005E2,1.5642117E2,6.9940393E2,1.1945973E3,7.505411E1,7.5393906E1,7.844632E1,6.4330316E0,2.5471014E1,5.0365686E0],"tree_param":{"num_deleted":"0","num_feature":"87","num_nodes":"109","size_leaf_vector":"1"}},{"base_weights":[3.2182104E-6,-1.4836113E-4,2.549439E-3,4.0661375E-4,-6.500217E-4,2.3026962E-3,8.179851E-3,2.4334091E-4,1.9651847E-3,-7.9148944E-4,3.5425968E-4,2.6179217E-3,3.9832183E-5,1.8678287E-3,1.0466332E-2,-1.0659092E-4,5.893046E-4,2.4287717E-3,9.008907E-4,-8.4437005E-4,4.572871E-4,2.2214587E-4,3.9115525E-3,2.1129244E-3,4.782582E-3,-3.332773E-4,1.4995406E-3,1.994175E-3,-0E0,5.2386485E-3,1.3195132E-3,2.4948918E-4,-3.8177933E-4,1.0265545E-3,-3.9974366E-5,1.9942864E-3,4.1463473E-3,6.7785365E-4,2.523542E-3,-1.0936292E-3,-6.859443E-4,-0E0,1.9210987E-3,-1.3084446E-4,6.885581E-4,4.7867615E-3,-0E0,1.8832529E-3,6.386488E-3,7.088505E-3,2.1467004E-4,3.7170798E-4,-5.4656295E-4,-0E0,1.9501392E-3,2.0668328E-4,-0E0,-0E0,5.792198E-3,1.9556917E-5,5.207892E-4,-6.3488325E-5,3.4182318E-5,3.887693E-5,1.3382667E-4,2.7294725E-6,-1.1662242E-4,2.1341105E-4,-0E0,3.8614735E-4,1.5354281E-3,3.99552E-5,1.4662772E-4,1.0501313E-3,1.4812854E-4,-1.1183189E-4,-4.918847E-5,-7.493114E-5,-0E0,-1.9362173E-5,5.618993E-4,1.3421707E-4,5.0174544E-4,-2.2556593E-5,2.0817333E-4,3.9498485E-5,2.9313585E-4,3.3528963E-4,9.458666E-4,1.3804478E-4,2.657574E-4,8.4396027E-4,-0E0,5.6272605E-4,1.1412262E-3,4.308371E-5,-0E0,5.3490647E-5,-0E0,-6.22311E-5,-0E0,2.3565254E-4,-0E0,-0E0,6.8635686E-4],"categories":[],"categories_nodes":[],"categories_segments":[],"categories_sizes":[],"default_left":[0,0,0,0,0,0,0,0,0,0,0,0,0,0,0,0,0,0,0,0,0,0,0,0,0,0,0,0,0,0,0,0,0,0,0,0,0,0,0,0,0,0,0,0,0,0,0,0,0,0,0,0,0,0,0,0,0,0,0,0,0,0,0,0,0,0,0,0,0,0,0,0,0,0,0,0,0,0,0,0,0,0,0,0,0,0,0,0,0,0,0,0,0,0,0,0,0,0,0,0,0,0,0,0,0],"id":5,"left_children":[1,3,5,7,9,11,13,15,17,19,21,23,25,27,29,31,33,35,37,39,41,43,45,47,49,51,53,55,-1,57,-1,59,61,63,65,67,69,71,73,75,77,79,81,83,85,87,-1,89,91,93,95,97,99,-1,101,-1,-1,-1,103,-1,-1,-1,-1,-1,-1,-1,-1,-1,-1,-1,-1,-1,-1,-1,-1,-1,-1,-1,-1,-1,-1,-1,-1,-1,-1,-1,-1,-1,-1,-1,-1,-1,-1,-1,-1,-1,-1,-1,-1,-1,-1,-1,-1,-1,-1],"loss_changes":[6.422932E-2,4.357955E-2,1.1925936E-2,1.8655509E-2,1.1731382E-2,6.1383843E-3,4.162628E-3,8.184476E-3,3.1067021E-3,4.8064627E-3,4.3186005E-3,7.872414E-3,7.366871E-4,3.4330995E-5,1.847988E-3,3.2732522E-3,9.4368635E-3,2.954673E-3,4.6843826E-4,2.5593676E-3,1.9675207E-3,1.6591352E-3,1.3658111E-3,5.4402947E-3,1.4489647E-2,1.4583691E-4,2.615159E-4,9.919429E-6,0E0,3.382049E-4,0E0,3.2938207E-3,3.4954732E-3,3.8263816E-3,1.1610285E-3,1.2591053E-3,9.575933E-4,2.462556E-4,5.267371E-4,2.3507327E-4,1.7883088E-3,2.1979494E-3,6.0309493E-4,9.511531E-4,2.508819E-3,5.7803E-4,0E0,1.965467E-3,4.119184E-3,4.207041E-3,4.8141166E-5,1.0913477E-5,4.328454E-5,0E0,2.2557192E-4,0E0,0E0,0E0,3.3788825E-4,0E0,0E0,0E0,0E0,0E0,0E0,0E0,0E0,0E0,0E0,0E0,0E0,0E0,0E0,0E0,0E0,0E0,0E0,0E0,0E0,0E0,0E0,0E0,0E0,0E0,0E0,0E0,0E0,0E0,0E0,0E0,0E0,0E0,0E0,0E0,0E0,0E0,0E0,0E0,0E0,0E0,0E0,0E0,0E0,0E0,0E0],"parents":[2147483647,0,0,1,1,2,2,3,3,4,4,5,5,6,6,7,7,8,8,9,9,10,10,11,11,12,12,13,13,14,14,15,15,16,16,17,17,18,18,19,19,20,20,21,21,22,22,23,23,24,24,25,25,26,26,27,27,29,29,31,31,32,32,33,33,34,34,35,35,36,36,37,37,38,38,39,39,40,40,41,41,42,42,43,43,44,44,45,45,47,47,48,48,49,49,50,50,51,51,52,52,54,54,58,58],"right_children":[2,4,6,8,10,12,14,16,18,20,22,24,26,28,30,32,34,36,38,40,42,44,46,48,50,52,54,56,-1,58,-1,60,62,64,66,68,70,72,74,76,78,80,82,84,86,88,-1,90,92,94,96,98,100,-1,102,-1,-1,-1,104,-1,-1,-1,-1,-1,-1,-1,-1,-1,-1,-1,-1,-1,-1,-1,-1,-1,-1,-1,-1,-1,-1,-1,-1,-1,-1,-1,-1,-1,-1,-1,-1,-1,-1,-1,-1,-1,-1,-1,-1,-1,-1,-1,-1,-1,-1],"split_conditions":[2.8790676E-3,1.9325666E4,5.638015E-1,1E0,1.0961962E-3,8.592164E3,1.0567E4,1E0,8E0,1E0,1E0,6.395807E-3,1E0,6.6E1,3E0,1.3703967E2,1E1,5E0,3.286771E-1,2.8960325E-4,3.722405E-1,1.5760318E-3,1.8813008E-3,1E0,2.9030571E3,1.2193624E4,3.504085E-1,5.24066E-2,-0E0,1E0,1.3195132E-3,5.785846E-1,1.5760318E-3,4E0,3.2255602E-1,5.718372E-1,4.6310282E-1,4.3590477E-1,4.1203564E-1,3.4592402E-1,4.854215E-1,3.9035377E-1,3.8687706E-1,1.1665827E5,6.937125E4,1.6146426E-3,-0E0,1E0,4.5819893E-1,1.3621797E-2,9E0,1.73996E-2,1E0,-0E0,1E0,2.0668328E-4,-0E0,-0E0,2E0,1.9556917E-5,5.207892E-4,-6.3488325E-5,3.4182318E-5,3.887693E-5,1.3382667E-4,2.7294725E-6,-1.1662242E-4,2.1341105E-4,-0E0,3.8614735E-4,1.5354281E-3,3.99552E-5,1.4662772E-4,1.0501313E-3,1.4812854E-4,-1.1183189E-4,-4.918847E-5,-7.493114E-5,-0E0,-1.9362173E-5,5.618993E-4,1.3421707E-4,5.0174544E-4,-2.2556593E-5,2.0817333E-4,3.9498485E-5,2.9313585E-4,3.3528963E-4,9.458666E-4,1.3804478E-4,2.657574E-4,8.4396027E-4,-0E0,5.6272605E-4,1.1412262E-3,4.308371E-5,-0E0,5.3490647E-5,-0E0,-6.22311E-5,-0E0,2.3565254E-4,-0E0,-0E0,6.8635686E-4],"split_indices":[6,4,57,19,6,5,4,12,27,19,19,6,36,7,25,5,27,27,56,6,45,6,6,19,5,5,77,1,0,29,0,45,6,27,81,82,45,43,56,78,43,51,82,4,4,6,0,12,69,6,27,0,11,0,8,0,0,0,27,0,0,0,0,0,0,0,0,0,0,0,0,0,0,0,0,0,0,0,0,0,0,0,0,0,0,0,0,0,0,0,0,0,0,0,0,0,0,0,0,0,0,0,0,0,0],"split_type":[0,0,0,0,0,0,0,0,0,0,0,0,0,0,0,0,0,0,0,0,0,0,0,0,0,0,0,0,0,0,0,0,0,0,0,0,0,0,0,0,0,0,0,0,0,0,0,0,0,0,0,0,0,0,0,0,0,0,0,0,0,0,0,0,0,0,0,0,0,0,0,0,0,0,0,0,0,0,0,0,0,0,0,0,0,0,0,0,0,0,0,0,0,0,0,0,0,0,0,0,0,0,0,0,0],"sum_hessian":[1.6579273E5,1.5644128E5,9.351455E3,7.4179336E4,8.226194E4,8.977214E3,3.742407E2,6.720445E4,6.974889E3,7.2192375E4,1.0069567E4,7.8406353E3,1.1365792E3,1.1162974E2,2.6261096E2,3.326726E4,3.3937188E4,4.7922363E3,2.1826523E3,6.933665E4,2.8557234E3,9.737115E3,3.324517E2,6.3965464E3,1.4440885E3,8.512579E2,2.8532135E2,1.0644292E2,5.186826E0,1.0363628E2,1.5897469E2,1.4343804E4,1.8923459E4,2.0117188E4,1.3819999E4,3.8729111E3,9.1932544E2,1.9743226E3,2.0832971E2,2.6696553E4,4.2640098E4,2.161747E3,6.9397644E2,5.420834E3,4.3162812E3,2.8127112E2,5.118057E1,6.0938867E3,3.0265973E2,9.447345E2,4.99354E2,8.864777E1,7.626101E2,4.8263447E1,2.3705789E2,1.0134363E2,5.0992904E0,8.963348E0,9.467292E1,1.42104795E4,1.3332423E2,1.4122106E4,4.8013535E3,6.710363E3,1.3406824E4,1.2958212E4,8.6178766E2,3.6583713E3,2.145398E2,9.065503E2,1.277516E1,1.5540933E3,4.2022946E2,1.1937207E1,1.963925E2,2.5483898E4,1.2126532E3,3.8918043E4,3.7220525E3,2.0956218E3,6.6125175E1,6.1307825E2,8.089821E1,5.2424946E3,1.7833937E2,3.8571584E3,4.591228E2,2.3291028E2,4.8360836E1,3.7747092E3,2.3191777E3,2.3071901E2,7.194072E1,7.251084E2,2.1962611E2,3.825732E2,1.16780785E2,8.043234E1,8.215426E0,6.997977E2,6.2812397E1,2.0265083E2,3.4407055E1,2.036449E1,7.430843E1],"tree_param":{"num_deleted":"0","num_feature":"87","num_nodes":"105","size_leaf_vector":"1"}},{"base_weights":[-8.209729E-6,-2.0512832E-4,1.6449726E-3,5.1835686E-4,-5.56974E-4,1.3854832E-3,4.436933E-3,3.5452688E-4,1.7744234E-3,-6.233562E-4,8.6889596E-4,2.3380918E-3,8.6053374E-4,6.2226267E-3,9.707306E-5,8.341677E-6,6.1889505E-4,2.4121443E-3,4.9773767E-4,-7.7402947E-4,-1.7080104E-4,-5.4692343E-4,1.3087015E-3,-0E0,2.6090904E-3,6.176652E-4,1.8486887E-3,7.4015153E-3,-4.663081E-5,2.706461E-4,-0E0,-1.5366277E-4,7.0894393E-4,9.418521E-4,-1.3000895E-4,2.2578654E-3,1.0851848E-2,9.500465E-4,-0E0,-8.20894E-4,-1.2867193E-4,-1.9263611E-4,2.9742632E-3,-1.2861424E-4,-2.398826E-4,1.2335938E-3,1.1687782E-3,4.0634043E-4,-2.7092424E-4,2.2683158E-3,4.9501583E-3,1.9348207E-3,3.5919156E-4,1.1760313E-3,4.0906835E-3,4.564651E-3,9.660563E-3,3.8565876E-4,-0E0,-5.8321184E-6,-1.0179677E-4,5.7314694E-5,9.699001E-4,9.3186475E-7,1.1273336E-4,-1.6605387E-5,1.9582303E-4,1.8841522E-4,3.5753672E-4,1.2954471E-3,-0E0,-0E0,1.1647723E-4,8.354581E-5,-3.532327E-5,-8.48814E-5,1.6547355E-6,6.4579485E-4,-3.0711344E-5,8.889479E-6,-3.651108E-5,7.725402E-4,-0E0,-0E0,-3.5906054E-5,9.995163E-5,6.030464E-4,-0E0,-4.8089314E-5,2.8170887E-4,1.5540417E-4,3.961078E-4,1.1630981E-3,1.4596943E-4,1.2476079E-3,-3.2588243E-5,5.396885E-5,2.4553877E-4,4.5633886E-5,2.993045E-4,8.592795E-4,4.932712E-4,-0E0,1.1598977E-3,5.9152E-4,4.436298E-5,-0E0],"categories":[],"categories_nodes":[],"categories_segments":[],"categories_sizes":[],"default_left":[0,0,0,0,0,0,0,0,0,0,0,0,0,0,0,0,0,0,0,0,0,0,0,0,0,0,0,0,0,0,0,0,0,0,0,0,0,0,0,0,0,0,0,0,0,0,0,0,0,0,0,0,0,0,0,0,0,0,0,0,0,0,0,0,0,0,0,0,0,0,0,0,0,0,0,0,0,0,0,0,0,0,0,0,0,0,0,0,0,0,0,0,0,0,0,0,0,0,0,0,0,0,0,0,0,0,0],"id":6,"left_children":[1,3,5,7,9,11,13,15,17,19,21,23,25,27,29,31,33,35,37,39,41,43,45,47,49,51,53,55,-1,57,-1,59,61,63,65,67,69,71,73,75,77,79,81,-1,83,-1,85,-1,87,89,91,93,95,97,99,101,103,105,-1,-1,-1,-1,-1,-1,-1,-1,-1,-1,-1,-1,-1,-1,-1,-1,-1,-1,-1,-1,-1,-1,-1,-1,-1,-1,-1,-1,-1,-1,-1,-1,-1,-1,-1,-1,-1,-1,-1,-1,-1,-1,-1,-1,-1,-1,-1,-1,-1],"loss_changes":[5.3940218E-2,3.780731E-2,1.218345E-2,9.76658E-3,9.442104E-3,7.761268E-3,1.0727661E-2,3.8703056E-3,4.2062346E-3,6.4260587E-3,2.8056717E-3,3.7391E-3,2.2698496E-3,8.757748E-3,2.0240986E-5,2.1863421E-3,5.935088E-3,3.3938326E-3,3.7182224E-4,2.0697117E-3,1.3741826E-3,7.07609E-5,3.8778172E-3,4.1906533E-4,3.3405386E-3,2.6649346E-3,2.466503E-3,4.184682E-3,0E0,1.847064E-5,0E0,1.139241E-3,3.4131631E-3,2.8274301E-3,3.630549E-4,1.2099072E-3,1.1661416E-3,2.0444987E-4,3.1224996E-4,1.6401E-3,5.2534984E-3,1.1891117E-3,1.1683401E-3,0E0,4.301611E-5,0E0,2.06027E-3,0E0,7.438379E-5,1.321027E-3,2.430142E-3,5.2557676E-3,9.0855936E-4,1.1485403E-3,9.113266E-4,4.6413485E-4,1.5950315E-3,9.889183E-6,0E0,0E0,0E0,0E0,0E0,0E0,0E0,0E0,0E0,0E0,0E0,0E0,0E0,0E0,0E0,0E0,0E0,0E0,0E0,0E0,0E0,0E0,0E0,0E0,0E0,0E0,0E0,0E0,0E0,0E0,0E0,0E0,0E0,0E0,0E0,0E0,0E0,0E0,0E0,0E0,0E0,0E0,0E0,0E0,0E0,0E0,0E0,0E0,0E0],"parents":[2147483647,0,0,1,1,2,2,3,3,4,4,5,5,6,6,7,7,8,8,9,9,10,10,11,11,12,12,13,13,14,14,15,15,16,16,17,17,18,18,19,19,20,20,21,21,22,22,23,23,24,24,25,25,26,26,27,27,29,29,31,31,32,32,33,33,34,34,35,35,36,36,37,37,38,38,39,39,40,40,41,41,42,42,44,44,46,46,48,48,49,49,50,50,51,51,52,52,53,53,54,54,55,55,56,56,57,57],"right_children":[2,4,6,8,10,12,14,16,18,20,22,24,26,28,30,32,34,36,38,40,42,44,46,48,50,52,54,56,-1,58,-1,60,62,64,66,68,70,72,74,76,78,80,82,-1,84,-1,86,-1,88,90,92,94,96,98,100,102,104,106,-1,-1,-1,-1,-1,-1,-1,-1,-1,-1,-1,-1,-1,-1,-1,-1,-1,-1,-1,-1,-1,-1,-1,-1,-1,-1,-1,-1,-1,-1,-1,-1,-1,-1,-1,-1,-1,-1,-1,-1,-1,-1,-1,-1,-1,-1,-1,-1,-1],"split_conditions":[1.8389613E-3,6.8812734E3,8.322958E-3,1E0,1E0,1E0,1.47E2,1E0,1E1,6.946786E-4,2.2181022E-4,2E0,4.1016014E-3,6.1720055E-1,9E0,1E0,1.1E1,6.4E1,1E0,4.389985E-1,1.5277012E5,9.262596E-5,2.361029E-4,1.8813008E-3,1E0,4E0,3.9069363E-1,1.3621797E-2,-4.663081E-5,1.73996E-2,-0E0,2.3579547E-1,5.164146E-1,2E0,5.164146E-1,5E0,2.8219703E-1,1.1E1,1.2E1,3.9035377E-1,7.268368E1,1E0,1E0,-1.2861424E-4,9E0,1.2335938E-3,3.9035377E-1,4.0634043E-4,4.6322856E3,9E0,4.5556727E-1,1.9E2,2.021717E-3,9.831358E2,4.2E1,7.637857E3,1E0,1E0,-0E0,-5.8321184E-6,-1.0179677E-4,5.7314694E-5,9.699001E-4,9.3186475E-7,1.1273336E-4,-1.6605387E-5,1.9582303E-4,1.8841522E-4,3.5753672E-4,1.2954471E-3,-0E0,-0E0,1.1647723E-4,8.354581E-5,-3.532327E-5,-8.48814E-5,1.6547355E-6,6.4579485E-4,-3.0711344E-5,8.889479E-6,-3.651108E-5,7.725402E-4,-0E0,-0E0,-3.5906054E-5,9.995163E-5,6.030464E-4,-0E0,-4.8089314E-5,2.8170887E-4,1.5540417E-4,3.961078E-4,1.1630981E-3,1.4596943E-4,1.2476079E-3,-3.2588243E-5,5.396885E-5,2.4553877E-4,4.5633886E-5,2.993045E-4,8.592795E-4,4.932712E-4,-0E0,1.1598977E-3,5.9152E-4,4.436298E-5,-0E0],"split_indices":[6,4,6,19,19,25,7,12,27,6,6,7,6,81,27,28,27,7,29,38,4,6,6,6,19,27,84,6,0,0,0,65,56,27,56,27,75,27,27,51,5,25,29,0,7,0,51,0,4,27,44,7,6,5,7,4,12,14,0,0,0,0,0,0,0,0,0,0,0,0,0,0,0,0,0,0,0,0,0,0,0,0,0,0,0,0,0,0,0,0,0,0,0,0,0,0,0,0,0,0,0,0,0,0,0,0,0],"split_type":[0,0,0,0,0,0,0,0,0,0,0,0,0,0,0,0,0,0,0,0,0,0,0,0,0,0,0,0,0,0,0,0,0,0,0,0,0,0,0,0,0,0,0,0,0,0,0,0,0,0,0,0,0,0,0,0,0,0,0,0,0,0,0,0,0,0,0,0,0,0,0,0,0,0,0,0,0,0,0,0,0,0,0,0,0,0,0,0,0,0,0,0,0,0,0,0,0,0,0,0,0,0,0,0,0,0,0],"sum_hessian":[1.6613366E5,1.4850578E5,1.762788E4,4.8497582E4,1.00008195E5,1.616298E4,1.4649004E3,4.2973414E4,5.524168E3,9.562692E4,4.3812754E3,5.673507E3,1.0489474E4,1.0212268E3,4.4367355E2,1.877162E4,2.4201795E4,3.6311465E3,1.8930212E3,7.15751E4,2.4051818E4,9.844673E2,3.3968079E3,5.6829694E2,5.1052095E3,8.502544E3,1.98693E3,8.8082904E2,1.4039783E2,3.3253522E2,1.1113832E2,1.5130865E4,3.640754E3,1.700279E4,7.199005E3,3.578841E3,5.2305447E1,9.3082263E2,9.6219855E2,6.658464E4,4.9904634E3,2.3918496E4,1.333231E2,1.9239253E2,7.9207477E2,3.251468E1,3.3642932E3,2.1947374E1,5.4634955E2,4.4955107E3,6.0969885E2,1.3302667E3,7.172277E3,1.563859E3,4.2307114E2,4.114393E2,4.693897E2,2.8744952E2,4.5085712E1,1.3732769E4,1.3980961E3,3.5985837E3,4.2170334E1,2.9104233E3,1.4092366E4,7.1248315E3,7.4173386E1,2.8490354E3,7.2980566E2,4.335469E1,8.950754E0,1.61198E2,7.6962463E2,3.3385352E2,6.283451E2,6.45519E4,2.0327396E3,1.15923004E2,4.8745405E3,8.866451E3,1.5052045E4,3.8485962E1,9.483715E1,1.0544311E2,6.8663165E2,3.2721465E3,9.214685E1,5.1975876E1,4.9437366E2,2.4614485E3,2.0340623E3,5.455E2,6.419888E1,1.2830603E3,4.7206406E1,1.3799318E3,5.792345E3,5.121244E2,1.0517345E3,3.59339E2,6.373215E1,3.7126147E2,4.017783E1,2.9033185E2,1.7905786E2,2.6723715E2,2.0212362E1],"tree_param":{"num_deleted":"0","num_feature":"87","num_nodes":"107","size_leaf_vector":"1"}},{"base_weights":[1.3884699E-5,-1.1469449E-4,2.188747E-3,3.5404996E-4,-5.254025E-4,1.9881537E-3,6.9457693E-3,2.2383995E-4,1.6086777E-3,-6.4972433E-4,2.665845E-4,1.7011509E-3,3.7990056E-3,1.6652357E-3,8.837296E-3,-8.035423E-5,5.2483665E-4,1.4495415E-3,2.80853E-3,-6.993111E-4,4.7766606E-4,1.808019E-4,2.567294E-3,3.2841142E-3,1.3625853E-3,3.455502E-3,1.0787656E-3,1.7617327E-3,-0E0,4.4347346E-3,1.1014181E-2,2.3341797E-4,-2.990623E-4,5.987891E-4,-7.295347E-4,1.5050283E-3,-7.232177E-5,3.00091E-3,-0E0,-9.1329083E-4,-5.686845E-4,8.0722486E-5,1.9676297E-3,1.13729155E-4,2.1709013E-3,-0E0,3.187475E-3,3.5340714E-3,-0E0,1.1900375E-3,3.240781E-3,4.892173E-3,2.2009772E-3,1.8140313E-3,-0E0,-0E0,4.632851E-4,-0E0,1.1388384E-3,3.8137635E-8,1.2884598E-4,-5.1277264E-5,3.2188847E-5,5.3320688E-5,1.470243E-4,-8.937178E-5,5.7934987E-5,1.5774957E-4,-0E0,-5.825504E-5,-0E0,3.4701973E-4,2.2659775E-5,-9.331325E-5,-4.2605803E-5,-5.9752754E-5,5.3124764E-5,-0E0,4.3182485E-4,4.3432586E-4,1.0705636E-4,-2.3208133E-5,4.6098874E-5,4.0408317E-4,4.4870772E-5,4.1381997E-4,-0E0,2.6626603E-4,5.2922877E-4,1.5876152E-5,-0E0,1.5034262E-4,2.2861755E-5,1.750894E-4,9.427466E-4,5.270297E-4,-0E0,1.35715E-4,3.965347E-4,2.0124894E-4,-0E0],"categories":[],"categories_nodes":[],"categories_segments":[],"categories_sizes":[],"default_left":[0,0,0,0,0,0,0,0,0,0,0,0,0,0,0,0,0,0,0,0,0,0,0,0,0,0,0,0,0,0,0,0,0,0,0,0,0,0,0,0,0,0,0,0,0,0,0,0,0,0,0,0,0,0,0,0,0,0,0,0,0,0,0,0,0,0,0,0,0,0,0,0,0,0,0,0,0,0,0,0,0,0,0,0,0,0,0,0,0,0,0,0,0,0,0,0,0,0,0,0,0],"id":7,"left_children":[1,3,5,7,9,11,13,15,17,19,21,23,25,27,29,31,33,35,37,39,41,43,45,47,49,51,-1,53,-1,55,57,59,61,63,65,67,69,71,-1,73,75,77,79,81,83,-1,85,87,89,91,93,95,97,99,-1,-1,-1,-1,-1,-1,-1,-1,-1,-1,-1,-1,-1,-1,-1,-1,-1,-1,-1,-1,-1,-1,-1,-1,-1,-1,-1,-1,-1,-1,-1,-1,-1,-1,-1,-1,-1,-1,-1,-1,-1,-1,-1,-1,-1,-1,-1],"loss_changes":[4.674991E-2,3.026217E-2,7.999506E-3,1.17835775E-2,8.294351E-3,4.109487E-3,2.5017895E-3,6.1278194E-3,8.7145343E-4,4.0800963E-3,1.9485734E-3,3.7106778E-3,1.3705753E-3,1.8888299E-5,7.9016574E-4,2.2630112E-3,3.1005917E-3,6.5789E-4,6.0380436E-4,1.7969683E-3,1.5536584E-3,1.2270217E-3,7.3070265E-4,7.421868E-4,1.6526608E-3,1.3338672E-3,0E0,2.3379107E-6,0E0,4.2455853E-5,6.785989E-5,3.1454577E-3,2.6153754E-3,1.6144831E-3,4.1739672E-4,6.8513956E-4,3.717431E-5,5.418011E-4,0E0,1.15953386E-4,1.3875104E-3,1.215978E-3,6.7401794E-4,1.2959046E-3,5.376106E-4,0E0,7.904938E-4,1.029782E-3,2.4965154E-6,1.6293926E-3,3.4353752E-3,8.846093E-4,4.261462E-4,3.3975812E-6,0E0,0E0,0E0,0E0,0E0,0E0,0E0,0E0,0E0,0E0,0E0,0E0,0E0,0E0,0E0,0E0,0E0,0E0,0E0,0E0,0E0,0E0,0E0,0E0,0E0,0E0,0E0,0E0,0E0,0E0,0E0,0E0,0E0,0E0,0E0,0E0,0E0,0E0,0E0,0E0,0E0,0E0,0E0,0E0,0E0,0E0,0E0],"parents":[2147483647,0,0,1,1,2,2,3,3,4,4,5,5,6,6,7,7,8,8,9,9,10,10,11,11,12,12,13,13,14,14,15,15,16,16,17,17,18,18,19,19,20,20,21,21,22,22,23,23,24,24,25,25,27,27,29,29,30,30,31,31,32,32,33,33,34,34,35,35,36,36,37,37,39,39,40,40,41,41,42,42,43,43,44,44,46,46,47,47,48,48,49,49,50,50,51,51,52,52,53,53],"right_children":[2,4,6,8,10,12,14,16,18,20,22,24,26,28,30,32,34,36,38,40,42,44,46,48,50,52,-1,54,-1,56,58,60,62,64,66,68,70,72,-1,74,76,78,80,82,84,-1,86,88,90,92,94,96,98,100,-1,-1,-1,-1,-1,-1,-1,-1,-1,-1,-1,-1,-1,-1,-1,-1,-1,-1,-1,-1,-1,-1,-1,-1,-1,-1,-1,-1,-1,-1,-1,-1,-1,-1,-1,-1,-1,-1,-1,-1,-1,-1,-1,-1,-1,-1,-1],"split_conditions":[2.8790676E-3,1.826875E4,5.638015E-1,1E0,1.065848E-3,3.8205653E-1,1.0567E4,1E0,3.8197035E-1,1E0,1E0,3.420652E3,2.6515058E-1,1.5536299E-2,1E0,1.1585111E3,3.2255602E-1,2.906203E-1,3.0715188E-1,2.861789E-4,4.5493007E-1,1.5277012E5,4E0,2.04E2,4.2313293E-1,1E0,1.0787656E-3,4.9E1,-0E0,1E0,1E0,1E0,1.5447378E-3,4.2330697E-1,1.1554732E-3,7.4093896E-1,1.3579935E-3,1.9E1,-0E0,3.4592402E-1,4.6002945E-1,4.2912737E-1,4.902343E-1,1.5127475E-3,1E0,-0E0,3.250118E-1,6.277777E-3,3.0333865E-2,2.1110082E4,5.767417E-3,1E0,4.4729803E-3,1E0,-0E0,-0E0,4.632851E-4,-0E0,1.1388384E-3,3.8137635E-8,1.2884598E-4,-5.1277264E-5,3.2188847E-5,5.3320688E-5,1.470243E-4,-8.937178E-5,5.7934987E-5,1.5774957E-4,-0E0,-5.825504E-5,-0E0,3.4701973E-4,2.2659775E-5,-9.331325E-5,-4.2605803E-5,-5.9752754E-5,5.3124764E-5,-0E0,4.3182485E-4,4.3432586E-4,1.0705636E-4,-2.3208133E-5,4.6098874E-5,4.0408317E-4,4.4870772E-5,4.1381997E-4,-0E0,2.6626603E-4,5.2922877E-4,1.5876152E-5,-0E0,1.5034262E-4,2.2861755E-5,1.750894E-4,9.427466E-4,5.270297E-4,-0E0,1.35715E-4,3.965347E-4,2.0124894E-4,-0E0],"split_indices":[6,4,57,19,6,50,4,12,56,19,19,4,82,1,21,4,81,57,52,6,43,4,7,7,57,21,0,7,0,29,29,28,6,45,6,43,6,7,0,78,51,40,43,6,29,0,44,6,1,4,6,30,6,22,0,0,0,0,0,0,0,0,0,0,0,0,0,0,0,0,0,0,0,0,0,0,0,0,0,0,0,0,0,0,0,0,0,0,0,0,0,0,0,0,0,0,0,0,0,0,0],"split_type":[0,0,0,0,0,0,0,0,0,0,0,0,0,0,0,0,0,0,0,0,0,0,0,0,0,0,0,0,0,0,0,0,0,0,0,0,0,0,0,0,0,0,0,0,0,0,0,0,0,0,0,0,0,0,0,0,0,0,0,0,0,0,0,0,0,0,0,0,0,0,0,0,0,0,0,0,0,0,0,0,0,0,0,0,0,0,0,0,0,0,0,0,0,0,0,0,0,0,0,0,0],"sum_hessian":[1.664341E5,1.5710116E5,9.332949E3,7.325326E4,8.38479E4,8.9768545E3,3.560949E2,6.643886E4,6.814394E3,7.258098E4,1.1266923E4,7.798093E3,1.1787616E3,1.08353745E2,2.4774117E2,3.2879047E4,3.3559816E4,6.091969E3,7.224249E2,6.960842E4,2.9725522E3,1.0904874E4,3.62048E2,1.3204172E3,6.4776753E3,1.1386008E3,4.0160744E1,1.0278809E2,5.565651E0,9.817175E1,1.4956941E2,1.3316732E4,1.9562312E4,3.1767201E4,1.792616E3,5.9410786E3,1.5089018E2,6.996931E2,2.273183E1,2.6093328E4,4.3515094E4,2.4010537E3,5.714986E2,1.0598961E4,3.0591315E2,5.5611744E1,3.0643625E2,1.1995298E3,1.208875E2,5.982908E3,4.9476746E2,4.9225894E2,6.4634186E2,9.7600395E1,5.1876993E0,6.322427E0,9.184933E1,9.209124E0,1.4036029E2,1.098595E4,2.3307827E3,1.467343E4,4.8888833E3,2.9652064E4,2.115136E3,1.6609845E3,1.316315E2,5.6830044E3,2.580744E2,1.1088182E2,4.000837E1,5.674163E2,1.322768E2,2.4874217E4,1.2191095E3,4.249221E4,1.02288306E3,2.336005E3,6.504881E1,1.25042465E2,4.4645612E2,5.1664414E3,5.43252E3,1.1818161E2,1.8773154E2,2.2756148E2,7.887478E1,8.417365E2,3.5779327E2,9.8047554E1,2.2839943E1,4.4332495E3,1.5496584E3,4.128025E2,8.196497E1,4.5586713E2,3.639183E1,4.7676904E2,1.6957278E2,7.995152E1,1.7648876E1],"tree_param":{"num_deleted":"0","num_feature":"87","num_nodes":"101","size_leaf_vector":"1"}},{"base_weights":[-0E0,-1.7111578E-4,1.3833224E-3,4.8444947E-4,-4.1033703E-4,1.137449E-3,3.2531999E-3,4.599802E-4,9.466727E-3,-4.6953777E-4,8.8991626E-4,2.0711673E-3,6.280184E-4,2.2663116E-3,8.364317E-3,4.275088E-4,4.3506776E-3,1.2125579E-3,6.9442416E-5,-6.3266855E-4,-3.955151E-5,7.475756E-4,5.841122E-3,-2.6562624E-4,2.3459995E-3,1.4287524E-3,3.6528017E-4,5.07616E-3,-2.6627415E-4,8.867946E-4,9.081022E-3,3.0352603E-4,1.242187E-3,2.0744253E-3,1.4313771E-2,6.135148E-5,-0E0,-6.77038E-4,-0E0,2.8745894E-4,-2.4557998E-4,-5.426729E-4,1.1158194E-3,6.2176E-4,-0E0,2.9233765E-4,-5.215532E-4,2.153632E-3,6.2624104E-3,1.19778E-3,9.415941E-3,-9.939413E-5,6.9201575E-4,5.4223165E-3,-0E0,-0E0,-7.710291E-4,2.2851436E-4,-0E0,1.1078623E-2,4.248363E-4,1.4356089E-5,9.341858E-5,1.5789788E-4,-0E0,3.016117E-6,8.663918E-4,1.5589033E-3,-0E0,-6.985571E-5,-0E0,5.2165426E-5,-5.1045306E-5,6.8336325E-5,-1.8575802E-5,-3.344952E-5,7.888383E-6,-6.882936E-5,-0E0,1.1396925E-3,9.655217E-5,-6.213903E-5,-0E0,1.4328255E-4,2.8090537E-4,1.4572019E-3,1.197804E-4,1.4897283E-4,-1.2919282E-5,-0E0,1.5132226E-3,3.5624723E-6,-5.7482033E-5,8.3101004E-5,-4.1519997E-5,7.191798E-4,4.1780397E-4,8.913429E-6,-0E0,-7.8761484E-5,-0E0,-0E0,1.1656072E-3],"categories":[],"categories_nodes":[],"categories_segments":[],"categories_sizes":[],"default_left":[0,0,0,0,0,0,0,0,0,0,0,0,0,0,0,0,0,0,0,0,0,0,0,0,0,0,0,0,0,0,0,0,0,0,0,0,0,0,0,0,0,0,0,0,0,0,0,0,0,0,0,0,0,0,0,0,0,0,0,0,0,0,0,0,0,0,0,0,0,0,0,0,0,0,0,0,0,0,0,0,0,0,0,0,0,0,0,0,0,0,0,0,0,0,0,0,0,0,0,0,0,0,0],"id":8,"left_children":[1,3,5,7,9,11,13,15,17,19,21,23,25,27,29,31,33,-1,35,37,39,41,43,45,47,49,51,53,55,57,59,61,63,65,67,-1,-1,69,71,73,75,77,79,-1,-1,-1,81,83,85,87,89,91,93,95,-1,97,99,-1,-1,101,-1,-1,-1,-1,-1,-1,-1,-1,-1,-1,-1,-1,-1,-1,-1,-1,-1,-1,-1,-1,-1,-1,-1,-1,-1,-1,-1,-1,-1,-1,-1,-1,-1,-1,-1,-1,-1,-1,-1,-1,-1,-1,-1],"loss_changes":[3.9403487E-2,2.3230098E-2,7.981852E-3,7.6853074E-3,8.32347E-3,7.455267E-3,9.418149E-3,4.4989437E-3,1.1824686E-3,7.228665E-3,2.6203366E-3,3.8463753E-3,2.045998E-3,1.3024964E-2,7.1076304E-4,3.7952089E-3,5.1480113E-3,0E0,9.183704E-6,2.106946E-3,1.9347213E-3,2.2196153E-3,2.0000851E-4,2.1730881E-4,2.992142E-3,3.575494E-3,1.283311E-3,1.0655448E-3,1.7926848E-4,1.2213226E-4,1.1214577E-3,3.3272174E-3,2.0771115E-3,2.5520395E-3,4.1569956E-4,0E0,0E0,1.092732E-3,1.3163002E-3,2.0987014E-3,5.4034346E-4,1.3232572E-4,4.315805E-3,0E0,0E0,0E0,4.707744E-5,1.8835552E-3,7.420986E-3,1.0900686E-3,3.8454016E-3,2.5953454E-4,7.898512E-4,5.61215E-4,0E0,3.002813E-6,3.5518606E-6,0E0,0E0,5.445536E-4,0E0,0E0,0E0,0E0,0E0,0E0,0E0,0E0,0E0,0E0,0E0,0E0,0E0,0E0,0E0,0E0,0E0,0E0,0E0,0E0,0E0,0E0,0E0,0E0,0E0,0E0,0E0,0E0,0E0,0E0,0E0,0E0,0E0,0E0,0E0,0E0,0E0,0E0,0E0,0E0,0E0,0E0,0E0],"parents":[2147483647,0,0,1,1,2,2,3,3,4,4,5,5,6,6,7,7,8,8,9,9,10,10,11,11,12,12,13,13,14,14,15,15,16,16,18,18,19,19,20,20,21,21,22,22,23,23,24,24,25,25,26,26,27,27,28,28,29,29,30,30,31,31,32,32,33,33,34,34,37,37,38,38,39,39,40,40,41,41,42,42,46,46,47,47,48,48,49,49,50,50,51,51,52,52,53,53,55,55,56,56,59,59],"right_children":[2,4,6,8,10,12,14,16,18,20,22,24,26,28,30,32,34,-1,36,38,40,42,44,46,48,50,52,54,56,58,60,62,64,66,68,-1,-1,70,72,74,76,78,80,-1,-1,-1,82,84,86,88,90,92,94,96,-1,98,100,-1,-1,102,-1,-1,-1,-1,-1,-1,-1,-1,-1,-1,-1,-1,-1,-1,-1,-1,-1,-1,-1,-1,-1,-1,-1,-1,-1,-1,-1,-1,-1,-1,-1,-1,-1,-1,-1,-1,-1,-1,-1,-1,-1,-1,-1],"split_conditions":[1.8170429E-3,7.001706E-5,6.395807E-3,5.622789E-1,1E0,1E0,4.348303E-1,5.108787E-1,7E0,6.946786E-4,3.9035377E-1,2E0,5E0,2.9030571E3,2E0,1E0,2E0,1.2125579E-3,1E0,4.854215E-1,1E0,2.2181022E-4,3.164071E-1,1.8813008E-3,1.9E2,1.9E2,2.4712896E-3,4.725408E-1,7.0902827E3,3E0,9E0,1E0,1.2E1,3.034925E-1,1E0,6.135148E-5,-0E0,4.0568185E-1,8E0,1E1,3.1902522E-1,4.854215E-1,2.361029E-4,6.2176E-4,-0E0,2.9233765E-4,2.9715547E-1,2.8790676E-3,4E0,9.5E1,2.9030571E3,9.008318E3,1E0,6E0,-0E0,9E0,1E0,2.2851436E-4,-0E0,1.2346295E3,4.248363E-4,1.4356089E-5,9.341858E-5,1.5789788E-4,-0E0,3.016117E-6,8.663918E-4,1.5589033E-3,-0E0,-6.985571E-5,-0E0,5.2165426E-5,-5.1045306E-5,6.8336325E-5,-1.8575802E-5,-3.344952E-5,7.888383E-6,-6.882936E-5,-0E0,1.1396925E-3,9.655217E-5,-6.213903E-5,-0E0,1.4328255E-4,2.8090537E-4,1.4572019E-3,1.197804E-4,1.4897283E-4,-1.2919282E-5,-0E0,1.5132226E-3,3.5624723E-6,-5.7482033E-5,8.3101004E-5,-4.1519997E-5,7.191798E-4,4.1780397E-4,8.913429E-6,-0E0,-7.8761484E-5,-0E0,-0E0,1.1656072E-3],"split_indices":[6,6,6,38,19,25,57,56,27,6,67,7,27,5,27,19,7,0,21,43,21,6,53,6,7,7,6,68,5,26,27,28,27,43,23,0,0,67,27,27,45,43,6,0,0,0,67,6,27,7,5,5,18,27,0,27,33,0,0,5,0,0,0,0,0,0,0,0,0,0,0,0,0,0,0,0,0,0,0,0,0,0,0,0,0,0,0,0,0,0,0,0,0,0,0,0,0,0,0,0,0,0,0],"split_type":[0,0,0,0,0,0,0,0,0,0,0,0,0,0,0,0,0,0,0,0,0,0,0,0,0,0,0,0,0,0,0,0,0,0,0,0,0,0,0,0,0,0,0,0,0,0,0,0,0,0,0,0,0,0,0,0,0,0,0,0,0,0,0,0,0,0,0,0,0,0,0,0,0,0,0,0,0,0,0,0,0,0,0,0,0,0,0,0,0,0,0,0,0,0,0,0,0,0,0,0,0,0,0],"sum_hessian":[1.664956E5,1.4817238E5,1.8323223E4,3.9501863E4,1.086705E5,1.624255E4,2.0806724E3,3.94067E4,9.5166466E1,1.0401235E5,4.658151E3,5.6632344E3,1.0579315E4,1.7615494E3,3.19123E2,3.9107125E4,2.995719E2,6.56577E1,2.9508772E1,7.5235875E4,2.8776479E4,4.548729E3,1.0942189E2,5.5767847E2,5.105556E3,2.5185654E3,8.06075E3,8.53306E2,9.082434E2,4.031138E1,2.788116E2,3.40494E4,5.0577285E3,2.5301192E2,4.6559986E1,2.3789621E1,5.7191505E0,7.0294266E4,4.9416064E3,1.0934835E4,1.7841643E4,9.4957764E2,3.5991514E3,1.016283E2,7.793582E0,1.1627963E1,5.4605054E2,4.892336E3,2.132199E2,2.4610667E3,5.7498756E1,3.2018313E3,4.8589185E3,7.8395233E2,6.935367E1,4.992495E2,4.089939E2,2.860997E1,1.1701408E1,1.8171425E2,9.7097374E1,2.728773E4,6.7616675E3,3.9629727E3,1.0947562E3,2.05454E2,4.7557922E1,4.080754E1,5.7524443E0,6.826934E4,2.0249218E3,2.4367688E3,2.5048376E3,6.0685884E3,4.866247E3,1.4245904E4,3.5957388E3,8.692199E2,8.035778E1,4.1192722E1,3.5579587E3,5.0630838E2,3.974214E1,2.4041304E3,2.4882058E3,7.255509E1,1.406648E2,2.0789192E3,3.821475E2,1.9055439E1,3.8443317E1,2.3305525E3,8.7127875E2,4.3974507E3,4.6146768E2,2.885123E2,4.9544006E2,3.769537E2,1.2229581E2,3.976339E2,1.1359993E1,1.364703E1,1.6806721E2],"tree_param":{"num_deleted":"0","num_feature":"87","num_nodes":"103","size_leaf_vector":"1"}},{"base_weights":[1.8054536E-5,-8.597767E-5,1.747717E-3,4.4035213E-4,-3.3722198E-4,1.5916617E-3,5.307852E-3,8.6495544E-5,6.6875125E-4,-4.5924616E-4,2.674629E-4,1.3183559E-3,3.2605187E-3,1.2369121E-3,6.5584886E-3,1.4250843E-4,-1.2870498E-3,1.1539888E-3,1.2662621E-4,-5.0896173E-4,6.8905775E-4,6.8756536E-4,-1.0447116E-5,1.6763279E-3,2.2266018E-4,2.851607E-3,9.4542885E-3,1.3200452E-3,-0E0,7.565455E-3,6.3284044E-4,3.125706E-4,-2.2833668E-4,-1.4220858E-3,-0E0,3.0058107E-4,1.3989703E-3,3.5504554E-4,-2.3558782E-4,-7.283496E-4,-3.9208305E-4,-4.4722436E-4,1.0968995E-3,1.275336E-3,1.0153581E-4,-6.535473E-5,2.0915002E-3,1.3217845E-3,2.9375441E-3,-1.8261404E-4,1.2194972E-3,2.500841E-3,9.879566E-3,-0E0,1.178828E-3,-0E0,1.364317E-4,-0E0,8.40411E-3,-0E0,1.5409302E-4,5.6607125E-5,-9.052433E-6,-9.2210015E-5,-5.090457E-6,-1.4334144E-4,-0E0,2.0231077E-5,3.0230735E-3,1.3251894E-4,4.1352847E-4,4.6520043E-5,-6.170743E-5,-2.9113764E-5,6.120922E-5,-5.75425E-5,-8.246326E-5,-4.775085E-5,4.2177903E-6,-8.8017914E-5,-0E0,1.4936802E-3,9.545634E-5,9.649085E-5,5.4922525E-4,2.7402762E-6,3.0824426E-4,1.15892635E-5,-4.4316384E-5,1.812945E-5,6.109458E-4,1.5116562E-4,-8.06315E-6,4.7860187E-4,1.6992634E-6,-4.7271864E-5,2.5882103E-4,-0E0,2.4315644E-4,2.9294466E-4,7.0813156E-5,1.0915534E-3,-0E0,-0E0,8.6861145E-4],"categories":[],"categories_nodes":[],"categories_segments":[],"categories_sizes":[],"default_left":[0,0,0,0,0,0,0,0,0,0,0,0,0,0,0,0,0,0,0,0,0,0,0,0,0,0,0,0,0,0,0,0,0,0,0,0,0,0,0,0,0,0,0,0,0,0,0,0,0,0,0,0,0,0,0,0,0,0,0,0,0,0,0,0,0,0,0,0,0,0,0,0,0,0,0,0,0,0,0,0,0,0,0,0,0,0,0,0,0,0,0,0,0,0,0,0,0,0,0,0,0,0,0,0,0],"id":9,"left_children":[1,3,5,7,9,11,13,15,17,19,21,23,25,27,29,31,33,35,37,39,41,43,45,47,49,51,53,55,-1,57,59,61,63,65,-1,67,69,71,73,75,77,79,81,83,85,87,89,91,93,95,97,99,101,-1,-1,-1,-1,-1,103,-1,-1,-1,-1,-1,-1,-1,-1,-1,-1,-1,-1,-1,-1,-1,-1,-1,-1,-1,-1,-1,-1,-1,-1,-1,-1,-1,-1,-1,-1,-1,-1,-1,-1,-1,-1,-1,-1,-1,-1,-1,-1,-1,-1,-1,-1],"loss_changes":[2.9997226E-2,2.0661568E-2,4.5573693E-3,3.9963014E-3,7.836364E-3,3.684327E-3,1.0957066E-3,1.4195275E-3,7.88112E-3,5.0227493E-3,2.1286167E-3,2.8945748E-3,1.8504588E-3,1.3571975E-5,7.504141E-4,1.2209957E-3,1.11609115E-4,3.1682327E-3,1.2099673E-3,2.0598117E-3,1.7249142E-3,2.3323721E-3,1.0072511E-3,2.1901652E-3,9.1460947E-4,1.6159024E-3,1.159146E-3,1.4521938E-6,0E0,6.74949E-4,9.264822E-5,1.4134487E-3,6.240305E-4,6.0721068E-6,0E0,7.697822E-3,1.9349102E-3,9.541119E-4,2.2381157E-4,2.886532E-4,2.1049194E-3,2.3527918E-4,3.7156201E-3,3.9242245E-3,5.0155196E-4,7.3550525E-4,1.0622058E-3,1.3780231E-3,6.1218906E-3,8.7985344E-4,8.038878E-4,5.001989E-4,2.734661E-4,0E0,0E0,0E0,0E0,0E0,4.4198707E-5,0E0,0E0,0E0,0E0,0E0,0E0,0E0,0E0,0E0,0E0,0E0,0E0,0E0,0E0,0E0,0E0,0E0,0E0,0E0,0E0,0E0,0E0,0E0,0E0,0E0,0E0,0E0,0E0,0E0,0E0,0E0,0E0,0E0,0E0,0E0,0E0,0E0,0E0,0E0,0E0,0E0,0E0,0E0,0E0,0E0,0E0],"parents":[2147483647,0,0,1,1,2,2,3,3,4,4,5,5,6,6,7,7,8,8,9,9,10,10,11,11,12,12,13,13,14,14,15,15,16,16,17,17,18,18,19,19,20,20,21,21,22,22,23,23,24,24,25,25,26,26,27,27,29,29,30,30,31,31,32,32,33,33,35,35,36,36,37,37,38,38,39,39,40,40,41,41,42,42,43,43,44,44,45,45,46,46,47,47,48,48,49,49,50,50,51,51,52,52,58,58],"right_children":[2,4,6,8,10,12,14,16,18,20,22,24,26,28,30,32,34,36,38,40,42,44,46,48,50,52,54,56,-1,58,60,62,64,66,-1,68,70,72,74,76,78,80,82,84,86,88,90,92,94,96,98,100,102,-1,-1,-1,-1,-1,104,-1,-1,-1,-1,-1,-1,-1,-1,-1,-1,-1,-1,-1,-1,-1,-1,-1,-1,-1,-1,-1,-1,-1,-1,-1,-1,-1,-1,-1,-1,-1,-1,-1,-1,-1,-1,-1,-1,-1,-1,-1,-1,-1,-1,-1,-1],"split_conditions":[2.8790676E-3,6.8812734E3,5.638015E-1,1E0,1.1554732E-3,3.8205653E-1,1.0567E4,4.8882613E-1,9E0,1E0,1E0,2.1110082E4,1E0,3.5182152E-2,1E1,5E0,6.352025E-4,2E0,1.2E1,2.8960325E-4,2.2181022E-4,9E0,3.482086E-1,6.395807E-3,1E0,2.6515058E-1,1E0,8.213205E2,-0E0,2E0,1E0,1.1585111E3,1E0,1E0,-0E0,1E0,4.345062E-1,2.6059067E-1,1.5997366E-3,1E0,3.9831233E-1,7.8194664E4,7.808375E3,3.5515615E-1,3.4214422E-1,8E0,1E0,6.277777E-3,2.0273784E3,2.8074524E-1,5.7994668E4,4E0,5.24066E-2,-0E0,1.178828E-3,-0E0,1.364317E-4,-0E0,1E0,-0E0,1.5409302E-4,5.6607125E-5,-9.052433E-6,-9.2210015E-5,-5.090457E-6,-1.4334144E-4,-0E0,2.0231077E-5,3.0230735E-3,1.3251894E-4,4.1352847E-4,4.6520043E-5,-6.170743E-5,-2.9113764E-5,6.120922E-5,-5.75425E-5,-8.246326E-5,-4.775085E-5,4.2177903E-6,-8.8017914E-5,-0E0,1.4936802E-3,9.545634E-5,9.649085E-5,5.4922525E-4,2.7402762E-6,3.0824426E-4,1.15892635E-5,-4.4316384E-5,1.812945E-5,6.109458E-4,1.5116562E-4,-8.06315E-6,4.7860187E-4,1.6992634E-6,-4.7271864E-5,2.5882103E-4,-0E0,2.4315644E-4,2.9294466E-4,7.0813156E-5,1.0915534E-3,-0E0,-0E0,8.6861145E-4],"split_indices":[6,4,57,12,6,50,4,57,27,19,20,4,19,1,27,25,6,27,27,6,6,27,60,6,36,82,29,5,0,27,29,4,8,18,0,64,82,50,6,20,38,4,4,64,59,27,23,6,5,41,4,25,1,0,0,0,0,0,29,0,0,0,0,0,0,0,0,0,0,0,0,0,0,0,0,0,0,0,0,0,0,0,0,0,0,0,0,0,0,0,0,0,0,0,0,0,0,0,0,0,0,0,0,0,0],"split_type":[0,0,0,0,0,0,0,0,0,0,0,0,0,0,0,0,0,0,0,0,0,0,0,0,0,0,0,0,0,0,0,0,0,0,0,0,0,0,0,0,0,0,0,0,0,0,0,0,0,0,0,0,0,0,0,0,0,0,0,0,0,0,0,0,0,0,0,0,0,0,0,0,0,0,0,0,0,0,0,0,0,0,0,0,0,0,0,0,0,0,0,0,0,0,0,0,0,0,0,0,0,0,0,0,0],"sum_hessian":[1.6578094E5,1.5632194E5,9.458997E3,5.03808E4,1.0594113E5,9.090077E3,3.689197E2,1.9934963E4,3.044584E4,8.829001E4,1.7651129E4,7.863927E3,1.2261501E3,1.05959595E2,2.629601E2,1.9224684E4,7.1027814E2,1.5967918E4,1.4477922E4,8.471014E4,3.5798647E3,7.1703813E3,1.0480747E4,5.85821E3,2.0057172E3,1.1667285E3,5.942156E1,1.0070045E2,5.2591496E0,2.1010388E2,5.2856224E1,1.3365394E4,5.859291E3,6.3679913E2,7.347896E1,3.652977E3,1.231494E4,9.048106E3,5.429815E3,2.914413E4,5.556601E4,8.8074475E2,2.6991199E3,3.494092E3,3.676289E3,1.0261244E4,2.1950304E2,4.6362417E3,1.2219681E3,1.355233E3,6.504842E2,1.126109E3,4.06195E1,1.3216083E1,4.6205475E1,5.713041E0,9.4987404E1,3.047404E1,1.7962984E2,5.7540655E0,4.7102158E1,8.357289E3,5.008104E3,1.0776934E3,4.7815977E3,6.2971295E2,7.0861855E0,3.645356E3,7.6210036E0,1.2028635E4,2.8630545E2,8.220049E3,8.28058E2,5.2072046E3,2.2261082E2,1.1663992E4,1.7480139E4,4.6624477E4,8.941536E3,5.303393E2,3.5040546E2,1.9266424E1,2.6798535E3,3.2777444E3,2.1634775E2,3.6207983E3,5.549066E1,6.7561216E3,3.5051226E3,1.6635054E2,5.31525E1,4.1461294E3,4.9011234E2,7.2697345E2,4.9499466E2,1.2602091E3,9.502382E1,3.5165225E2,2.9883194E2,8.6329474E2,2.6281433E2,3.538953E1,5.229971E0,1.0952489E1,1.6867735E2],"tree_param":{"num_deleted":"0","num_feature":"87","num_nodes":"105","size_leaf_vector":"1"}},{"base_weights":[3.5883052E-6,-1.3598165E-4,1.1020121E-3,4.2667706E-4,-3.459326E-4,9.222358E-4,3.1252545E-3,3.9246303E-4,4.0516974E-3,-5.24887E-4,-4.625522E-5,4.7100792E-4,1.6436678E-3,4.401858E-3,-0E0,3.709863E-4,5.8803274E-3,2.031875E-3,9.708309E-3,-5.989505E-4,-4.0998384E-5,3.037421E-4,-2.8856384E-4,4.2268832E-4,3.6542455E-3,-1.80991E-4,1.9205442E-3,5.4469877E-3,-4.40476E-4,1.4129387E-4,-0E0,4.2384048E-4,-1.3350397E-3,7.85385E-3,-0E0,1.6286998E-4,8.064474E-4,1.2616754E-2,-0E0,-4.3592922E-4,-7.0780405E-4,5.477986E-4,-3.9056642E-4,1.2882921E-4,1.4537408E-3,3.1496256E-5,-3.733604E-4,3.183306E-4,1.634265E-3,1.4739129E-3,1.491119E-3,-3.7375354E-4,3.0915622E-4,1.6481337E-3,4.018094E-3,2.9756362E-3,7.2298604E-3,-4.831989E-5,-0E0,2.538691E-4,-0E0,5.3702006E-5,-3.3482487E-5,-1.4863972E-4,-0E0,1.0039744E-3,3.916357E-5,-0E0,6.372582E-5,1.439743E-3,-0E0,-2.0536909E-5,-7.073074E-5,-7.099589E-5,-0E0,1.3608493E-4,-3.3766217E-5,6.686221E-5,-4.8682512E-5,-6.969317E-6,9.263141E-5,2.8553524E-4,6.4541578E-6,-0E0,8.094671E-4,-3.901127E-5,1.5986816E-4,-1.4034358E-6,6.1855164E-5,-6.596512E-6,2.4123234E-4,-0E0,1.808736E-4,1.8748593E-5,-6.472254E-5,1.9157892E-4,7.237138E-5,4.6619275E-4,-0E0,3.3223393E-4,-0E0,8.190814E-4,2.30864E-4,-0E0,4.212719E-5],"categories":[],"categories_nodes":[],"categories_segments":[],"categories_sizes":[],"default_left":[0,0,0,0,0,0,0,0,0,0,0,0,0,0,0,0,0,0,0,0,0,0,0,0,0,0,0,0,0,0,0,0,0,0,0,0,0,0,0,0,0,0,0,0,0,0,0,0,0,0,0,0,0,0,0,0,0,0,0,0,0,0,0,0,0,0,0,0,0,0,0,0,0,0,0,0,0,0,0,0,0,0,0,0,0,0,0,0,0,0,0,0,0,0,0,0,0,0,0,0,0,0,0,0,0],"id":10,"left_children":[1,3,5,7,9,11,13,15,17,19,21,23,25,27,29,31,33,35,37,39,41,43,45,47,49,51,53,55,57,59,-1,61,63,65,-1,67,-1,69,-1,71,73,75,77,79,81,83,85,87,89,-1,91,93,-1,95,97,99,101,-1,-1,103,-1,-1,-1,-1,-1,-1,-1,-1,-1,-1,-1,-1,-1,-1,-1,-1,-1,-1,-1,-1,-1,-1,-1,-1,-1,-1,-1,-1,-1,-1,-1,-1,-1,-1,-1,-1,-1,-1,-1,-1,-1,-1,-1,-1,-1],"loss_changes":[2.54939E-2,1.7346144E-2,6.415032E-3,4.4891993E-3,5.687291E-3,5.410822E-3,5.63847E-3,4.0220744E-3,2.7436302E-3,2.3320355E-3,3.4128304E-3,1.2386409E-3,3.4889579E-3,5.763795E-3,6.5782588E-6,3.454356E-3,1.6823094E-3,2.2002715E-3,2.3339102E-3,9.110607E-4,1.8482358E-3,3.120568E-3,6.8443595E-4,1.1426129E-3,1.4509821E-3,2.4522626E-4,2.7089994E-3,2.800176E-3,3.1128657E-6,1.1650267E-5,0E0,3.2995655E-3,2.494366E-4,6.37352E-4,0E0,6.710633E-5,0E0,9.0177637E-4,0E0,1.379814E-3,2.5665388E-5,2.4548452E-3,5.7236094E-4,2.3379438E-3,3.7510307E-3,1.3212364E-3,5.136535E-4,1.0406481E-3,1.244447E-3,0E0,5.295282E-5,1.6918915E-4,0E0,1.0034377E-3,1.8740706E-3,3.394629E-4,1.2123007E-3,0E0,0E0,2.0104297E-5,0E0,0E0,0E0,0E0,0E0,0E0,0E0,0E0,0E0,0E0,0E0,0E0,0E0,0E0,0E0,0E0,0E0,0E0,0E0,0E0,0E0,0E0,0E0,0E0,0E0,0E0,0E0,0E0,0E0,0E0,0E0,0E0,0E0,0E0,0E0,0E0,0E0,0E0,0E0,0E0,0E0,0E0,0E0,0E0,0E0],"parents":[2147483647,0,0,1,1,2,2,3,3,4,4,5,5,6,6,7,7,8,8,9,9,10,10,11,11,12,12,13,13,14,14,15,15,16,16,17,17,18,18,19,19,20,20,21,21,22,22,23,23,24,24,25,25,26,26,27,27,28,28,29,29,31,31,32,32,33,33,35,35,37,37,39,39,40,40,41,41,42,42,43,43,44,44,45,45,46,46,47,47,48,48,50,50,51,51,53,53,54,54,55,55,56,56,59,59],"right_children":[2,4,6,8,10,12,14,16,18,20,22,24,26,28,30,32,34,36,38,40,42,44,46,48,50,52,54,56,58,60,-1,62,64,66,-1,68,-1,70,-1,72,74,76,78,80,82,84,86,88,90,-1,92,94,-1,96,98,100,102,-1,-1,104,-1,-1,-1,-1,-1,-1,-1,-1,-1,-1,-1,-1,-1,-1,-1,-1,-1,-1,-1,-1,-1,-1,-1,-1,-1,-1,-1,-1,-1,-1,-1,-1,-1,-1,-1,-1,-1,-1,-1,-1,-1,-1,-1,-1,-1],"split_conditions":[1.7519841E-3,1.645E3,8.322958E-3,5.108787E-1,5.9485773E-4,1E0,1.47E2,5.622789E-1,1E0,3.7418687E-1,1E0,4.1788396E-1,7.268368E1,6.1720055E-1,9E0,3.7200832E-1,7.001706E-5,3.034925E-1,7.268368E1,1E0,1E0,2.9715547E-1,4E0,1E0,3E0,5.5209043E4,1E0,1.3621797E-2,1E0,1.2440088E-2,-0E0,1.2E1,3.604628E-1,7E0,-0E0,1E0,8.064474E-4,1E0,-0E0,1E1,5.0192004E-1,1E1,3E0,6.4E1,1E1,1.1665827E5,6.0450125E-1,1E0,1E0,1.4739129E-3,3.045844E2,4.6322856E3,3.0915622E-4,1.1E1,4.8677307E-1,5.0192004E-1,1E1,-4.831989E-5,-0E0,3E0,-0E0,5.3702006E-5,-3.3482487E-5,-1.4863972E-4,-0E0,1.0039744E-3,3.916357E-5,-0E0,6.372582E-5,1.439743E-3,-0E0,-2.0536909E-5,-7.073074E-5,-7.099589E-5,-0E0,1.3608493E-4,-3.3766217E-5,6.686221E-5,-4.8682512E-5,-6.969317E-6,9.263141E-5,2.8553524E-4,6.4541578E-6,-0E0,8.094671E-4,-3.901127E-5,1.5986816E-4,-1.4034358E-6,6.1855164E-5,-6.596512E-6,2.4123234E-4,-0E0,1.808736E-4,1.8748593E-5,-6.472254E-5,1.9157892E-4,7.237138E-5,4.6619275E-4,-0E0,3.3223393E-4,-0E0,8.190814E-4,2.30864E-4,-0E0,4.212719E-5],"split_indices":[6,4,6,56,6,12,7,38,7,38,21,51,5,81,27,55,6,43,5,25,25,51,27,16,27,4,19,6,29,0,0,27,78,27,0,12,0,30,0,27,41,27,27,7,27,4,56,15,8,0,5,4,0,27,69,41,27,0,0,27,0,0,0,0,0,0,0,0,0,0,0,0,0,0,0,0,0,0,0,0,0,0,0,0,0,0,0,0,0,0,0,0,0,0,0,0,0,0,0,0,0,0,0,0,0],"split_type":[0,0,0,0,0,0,0,0,0,0,0,0,0,0,0,0,0,0,0,0,0,0,0,0,0,0,0,0,0,0,0,0,0,0,0,0,0,0,0,0,0,0,0,0,0,0,0,0,0,0,0,0,0,0,0,0,0,0,0,0,0,0,0,0,0,0,0,0,0,0,0,0,0,0,0,0,0,0,0,0,0,0,0,0,0,0,0,0,0,0,0,0,0,0,0,0,0,0,0,0,0,0,0,0,0],"sum_hessian":[1.6566106E5,1.4690462E5,1.8756432E4,3.979053E4,1.0711409E5,1.727255E4,1.4838807E3,3.9446914E4,3.436174E2,6.6856086E4,4.025801E4,1.0712538E4,6.560012E3,1.0384949E3,4.4538586E2,3.9312355E4,1.345591E2,2.6723328E2,7.638411E1,5.7802066E4,9.054016E3,1.6300362E4,2.3957648E4,1.0584421E4,1.281177E2,8.167405E2,5.743272E3,8.7102606E2,1.674688E2,3.2850668E2,1.16879166E2,3.8188605E4,1.1237495E3,1.0226525E2,3.2293842E1,2.1746303E2,4.9770264E1,5.9480663E1,1.6903448E1,2.3512684E4,3.4289383E4,3.2661025E3,5.7879136E3,1.42248545E4,2.075508E3,4.7710205E3,1.9186627E4,9.822197E3,7.622236E2,1.2421399E1,1.15696304E2,8.010022E2,1.5738295E1,5.126898E3,6.1637396E2,3.8965677E2,4.8136932E2,1.523273E2,1.5141503E1,2.818341E2,4.6672585E1,3.3346062E4,4.8425454E3,1.01924805E3,1.0450141E2,6.846397E1,3.3801285E1,3.8946213E1,1.7851682E2,4.9795704E1,9.68496E0,1.2912555E4,1.060013E4,3.4132457E4,1.5692545E2,1.7612659E3,1.5048368E3,3.9514114E2,5.3927725E3,1.1289912E4,2.9349426E3,9.967813E2,1.0787267E3,4.7517837E3,1.9236498E1,1.907609E4,1.1053841E2,4.5039194E3,5.318278E3,1.9923694E2,5.6298663E2,2.11997E1,9.4496605E1,1.42729E2,6.582732E2,3.8910422E3,1.2358557E3,5.43854E2,7.251993E1,3.4313123E2,4.652557E1,3.851731E2,9.6196205E1,6.683806E1,2.1499605E2],"tree_param":{"num_deleted":"0","num_feature":"87","num_nodes":"105","size_leaf_vector":"1"}},{"base_weights":[-5.938181E-7,-1.2360157E-4,9.6069573E-4,3.401357E-4,-3.2622402E-4,7.9563906E-4,2.7827749E-3,2.3285499E-4,1.1174487E-3,-3.6933704E-4,6.2934833E-4,6.9851405E-4,2.9059856E-3,1.6855748E-3,6.399408E-3,3.268832E-4,-5.8585E-4,1.5277796E-3,2.0124571E-4,-4.6776785E-4,-7.996112E-5,3.2521618E-4,1.9334074E-3,4.5012566E-4,1.1382736E-3,1.340977E-3,4.4708974E-3,3.956156E-3,-0E0,8.141942E-3,3.9753504E-4,2.9890923E-4,3.3956768E-3,-7.051674E-4,9.504906E-4,1.2065658E-3,2.863063E-3,3.6328795E-5,1.1823805E-3,-5.018364E-4,8.9847816E-7,-1.14622206E-4,1.4355999E-3,1.8448886E-3,9.312623E-5,2.6538922E-3,1.11049674E-4,2.710083E-4,1.2261999E-3,-3.673179E-4,1.3681346E-3,2.606309E-3,-0E0,4.676315E-3,-0E0,-0E0,4.3668593E-3,9.379986E-6,-3.9300777E-4,4.2239498E-4,9.46988E-3,4.33378E-5,-2.2160291E-5,6.015106E-4,1.3639599E-4,-9.9865945E-5,3.3695594E-6,1.5932758E-4,-0E0,1.3897712E-4,-0E0,4.3014675E-6,3.4275543E-4,3.4313463E-5,-1.0928931E-5,-0E0,1.2740007E-4,-5.2214666E-5,1.0069852E-5,1.4325278E-5,-9.0456386E-5,-1.546979E-5,1.0581582E-4,2.74281E-4,8.117866E-7,8.134136E-5,8.52553E-4,2.576958E-4,-0E0,6.520606E-4,1.5647586E-4,-5.4183998E-5,7.282849E-5,8.648911E-5,7.3126585E-6,8.35655E-5,3.3976178E-4,-5.52213E-5,4.2847863E-5,1.5166998E-4,-0E0,3.1054267E-4,-0E0,4.9339555E-4,-0E0,4.6965346E-4,-0E0,2.0390753E-5,-0E0,-4.360674E-5,-0E0,1.3692986E-4,-0E0,9.772846E-4,-0E0],"categories":[],"categories_nodes":[],"categories_segments":[],"categories_sizes":[],"default_left":[0,0,0,0,0,0,0,0,0,0,0,0,0,0,0,0,0,0,0,0,0,0,0,0,0,0,0,0,0,0,0,0,0,0,0,0,0,0,0,0,0,0,0,0,0,0,0,0,0,0,0,0,0,0,0,0,0,0,0,0,0,0,0,0,0,0,0,0,0,0,0,0,0,0,0,0,0,0,0,0,0,0,0,0,0,0,0,0,0,0,0,0,0,0,0,0,0,0,0,0,0,0,0,0,0,0,0,0,0,0,0,0,0,0,0],"id":11,"left_children":[1,3,5,7,9,11,13,15,17,19,21,23,25,27,29,31,33,35,37,39,41,43,45,47,49,51,53,55,57,59,-1,61,63,65,67,69,71,73,75,77,79,81,83,85,87,89,91,93,95,97,99,101,-1,103,-1,-1,105,107,109,111,113,-1,-1,-1,-1,-1,-1,-1,-1,-1,-1,-1,-1,-1,-1,-1,-1,-1,-1,-1,-1,-1,-1,-1,-1,-1,-1,-1,-1,-1,-1,-1,-1,-1,-1,-1,-1,-1,-1,-1,-1,-1,-1,-1,-1,-1,-1,-1,-1,-1,-1,-1,-1,-1,-1],"loss_changes":[1.952645E-2,1.3822669E-2,5.270412E-3,3.5827528E-3,4.198445E-3,3.1667147E-3,5.1502166E-3,2.9991164E-3,1.8170201E-3,2.7425513E-3,1.4894933E-3,1.6437657E-3,1.1564773E-3,4.7403523E-3,1.4383532E-4,2.6646405E-3,6.981469E-4,1.1254447E-3,1.5543422E-4,1.2160614E-3,1.1911172E-3,1.0658093E-3,7.1562966E-4,1.3367755E-3,2.1121171E-3,6.306934E-4,4.1173212E-4,7.8405906E-4,2.5384772E-5,7.10601E-4,0E0,2.4758617E-3,7.812064E-4,9.023048E-4,1.8145354E-4,6.8242755E-4,6.608912E-4,9.292578E-5,8.132789E-6,8.7772496E-4,5.363478E-4,1.0701723E-3,6.554639E-4,1.9264081E-3,7.975113E-4,1.2967156E-3,1.2161187E-4,9.398554E-4,1.185722E-3,1.175228E-4,1.0398179E-3,3.848609E-4,0E0,4.0033227E-4,0E0,0E0,7.0626196E-4,1.5794372E-5,3.2727712E-6,4.3502376E-5,9.1693364E-5,0E0,0E0,0E0,0E0,0E0,0E0,0E0,0E0,0E0,0E0,0E0,0E0,0E0,0E0,0E0,0E0,0E0,0E0,0E0,0E0,0E0,0E0,0E0,0E0,0E0,0E0,0E0,0E0,0E0,0E0,0E0,0E0,0E0,0E0,0E0,0E0,0E0,0E0,0E0,0E0,0E0,0E0,0E0,0E0,0E0,0E0,0E0,0E0,0E0,0E0,0E0,0E0,0E0,0E0],"parents":[2147483647,0,0,1,1,2,2,3,3,4,4,5,5,6,6,7,7,8,8,9,9,10,10,11,11,12,12,13,13,14,14,15,15,16,16,17,17,18,18,19,19,20,20,21,21,22,22,23,23,24,24,25,25,26,26,27,27,28,28,29,29,31,31,32,32,33,33,34,34,35,35,36,36,37,37,38,38,39,39,40,40,41,41,42,42,43,43,44,44,45,45,46,46,47,47,48,48,49,49,50,50,51,51,53,53,56,56,57,57,58,58,59,59,60,60],"right_children":[2,4,6,8,10,12,14,16,18,20,22,24,26,28,30,32,34,36,38,40,42,44,46,48,50,52,54,56,58,60,-1,62,64,66,68,70,72,74,76,78,80,82,84,86,88,90,92,94,96,98,100,102,-1,104,-1,-1,106,108,110,112,114,-1,-1,-1,-1,-1,-1,-1,-1,-1,-1,-1,-1,-1,-1,-1,-1,-1,-1,-1,-1,-1,-1,-1,-1,-1,-1,-1,-1,-1,-1,-1,-1,-1,-1,-1,-1,-1,-1,-1,-1,-1,-1,-1,-1,-1,-1,-1,-1,-1,-1,-1,-1,-1,-1],"split_conditions":[1.7519841E-3,4.8716E3,8.322958E-3,1E0,1E0,1E0,4.348303E-1,2.6059067E-1,1E1,6.946786E-4,3.9764586E-1,1E0,1.7040886E3,2.9030571E3,8E0,5.164146E-1,4.274772E-1,1E0,3.286771E-1,4.854215E-1,3.604628E-1,6.6967883E2,1E1,4.1016014E-3,7.268368E1,4.0185723E-1,4.799475E4,9.88195E1,1.0567E4,2E0,3.9753504E-4,1.1E1,6E0,3.9420334E-1,1E0,4.4517717E-1,2E0,1E0,1.1E1,3.9035377E-1,6.0510235E-3,5.4536027E-1,1E0,6.427601E2,8.94675E3,4.6727376E-4,1.8075999E-4,5E0,3.2853946E-1,2.6059067E-1,1.3481365E4,1.3528917E3,-0E0,2.906203E-1,-0E0,-0E0,5.2058977E-1,9E0,1E0,3E0,1E0,4.33378E-5,-2.2160291E-5,6.015106E-4,1.3639599E-4,-9.9865945E-5,3.3695594E-6,1.5932758E-4,-0E0,1.3897712E-4,-0E0,4.3014675E-6,3.4275543E-4,3.4313463E-5,-1.0928931E-5,-0E0,1.2740007E-4,-5.2214666E-5,1.0069852E-5,1.4325278E-5,-9.0456386E-5,-1.546979E-5,1.0581582E-4,2.74281E-4,8.117866E-7,8.134136E-5,8.52553E-4,2.576958E-4,-0E0,6.520606E-4,1.5647586E-4,-5.4183998E-5,7.282849E-5,8.648911E-5,7.3126585E-6,8.35655E-5,3.3976178E-4,-5.52213E-5,4.2847863E-5,1.5166998E-4,-0E0,3.1054267E-4,-0E0,4.9339555E-4,-0E0,4.6965346E-4,-0E0,2.0390753E-5,-0E0,-4.360674E-5,-0E0,1.3692986E-4,-0E0,9.772846E-4,-0E0],"split_indices":[6,4,6,19,19,19,57,50,27,6,45,12,5,5,27,71,75,36,71,43,78,5,27,6,5,43,4,5,4,27,0,27,27,43,29,43,27,29,27,51,0,64,24,5,4,6,6,27,43,50,5,5,0,57,0,0,76,27,29,26,32,0,0,0,0,0,0,0,0,0,0,0,0,0,0,0,0,0,0,0,0,0,0,0,0,0,0,0,0,0,0,0,0,0,0,0,0,0,0,0,0,0,0,0,0,0,0,0,0,0,0,0,0,0,0],"split_type":[0,0,0,0,0,0,0,0,0,0,0,0,0,0,0,0,0,0,0,0,0,0,0,0,0,0,0,0,0,0,0,0,0,0,0,0,0,0,0,0,0,0,0,0,0,0,0,0,0,0,0,0,0,0,0,0,0,0,0,0,0,0,0,0,0,0,0,0,0,0,0,0,0,0,0,0,0,0,0,0,0,0,0,0,0,0,0,0,0,0,0,0,0,0,0,0,0,0,0,0,0,0,0,0,0,0,0,0,0,0,0,0,0,0,0],"sum_hessian":[1.6583994E5,1.4711928E5,1.872066E4,4.4584824E4,1.0253445E5,1.7217314E4,1.5033458E3,3.9291906E4,5.2929185E3,9.820879E4,4.3256694E3,1.6506354E4,7.109597E2,1.1757633E3,3.2758246E2,3.535422E4,3.9376848E3,3.5798376E3,1.7130807E3,7.302369E4,2.5185096E4,3.5708179E3,7.548517E2,1.0694964E4,5.81139E3,3.88347E2,3.2261273E2,5.154935E2,6.6026984E2,1.6520958E2,1.6237288E2,3.5068234E4,2.8598523E2,3.7148105E3,2.2287405E2,2.9475688E3,6.3226886E2,1.5547122E3,1.5836855E2,6.8273984E4,4.749707E3,2.4687398E4,4.9769754E2,4.150895E2,3.1557283E3,5.013202E2,2.5353151E2,8.795233E3,1.8997303E3,7.120186E2,5.0993716E3,1.9491562E2,1.9343137E2,3.136344E2,8.9783125E0,5.146799E1,4.6402557E2,4.9720312E2,1.6306668E2,3.5494774E1,1.297148E2,2.8021473E4,7.046763E3,1.0256776E2,1.8341747E2,2.755328E3,9.5948285E2,1.5015399E2,7.272006E1,2.5747441E3,3.7282477E2,1.351787E2,4.9709015E2,7.209979E2,8.337143E2,1.7087124E1,1.4128142E2,6.620833E4,2.0656533E3,4.2005854E3,5.491219E2,2.3954957E4,7.3244196E2,2.22745E2,2.7495255E2,3.7351074E2,4.157878E1,1.23216805E2,3.0325115E3,8.889966E1,4.1242053E2,4.4534184E1,2.0899733E2,2.0710059E3,6.7242275E3,1.6503422E3,2.4938814E2,6.799951E2,3.2023502E1,4.6011367E3,4.9823523E2,1.7690787E2,1.800775E1,2.9807816E2,1.555624E1,4.3305087E2,3.0974691E1,3.7992493E2,1.1727819E2,1.4947589E2,1.3590793E1,2.5674267E1,9.820504E0,1.2269595E2,7.01885E0],"tree_param":{"num_deleted":"0","num_feature":"87","num_nodes":"115","size_leaf_vector":"1"}},{"base_weights":[1.0918875E-5,-1.012996E-4,8.948254E-4,3.8153178E-4,-2.746519E-4,7.5227855E-4,2.52126E-3,3.6239147E-4,6.349231E-3,-3.1913674E-4,6.852701E-4,1.3025906E-3,4.262851E-4,3.631043E-3,-0E0,3.3953966E-4,5.268311E-3,6.8848217E-3,-0E0,-4.6122033E-4,-8.61336E-5,3.2243252E-4,1.8322624E-3,-4.1153067E-5,1.5663678E-3,2.500891E-4,9.853578E-4,4.3627284E-3,-2.9858653E-5,3.9033798E-4,-1.2064545E-3,-0E0,7.0385955E-4,3.3289043E-4,1.2994882E-3,-4.9409026E-4,2.9500303E-4,1.9873901E-4,-2.535283E-4,1.8521663E-4,4.3403645E-4,1.3193511E-3,3.85729E-3,-3.0470846E-4,1.0586067E-3,1.7294579E-3,-0E0,3.8880057E-4,-1.2852772E-4,2.1962568E-3,3.384011E-4,2.3103943E-3,5.95442E-3,4.28109E-5,-1.842296E-4,-1.4256875E-4,-0E0,-5.0521114E-5,1.2526308E-4,3.3347306E-4,8.869641E-6,3.7475425E-6,1.1271133E-4,-3.3336582E-5,-7.955983E-6,1.5760458E-4,-3.0516588E-7,3.355143E-4,8.273054E-5,9.5785205E-4,1.4497196E-4,-4.414356E-5,-0E0,2.2237124E-4,-0E0,1.4461555E-4,3.2792208E-4,-3.1649095E-5,5.2114605E-4,-6.265067E-5,4.668353E-5,-6.773255E-5,1.8988964E-6,8.612795E-5,3.0608027E-4,1.237332E-4,-0E0,-0E0,2.7213208E-4,2.874637E-4,7.29707E-4],"categories":[],"categories_nodes":[],"categories_segments":[],"categories_sizes":[],"default_left":[0,0,0,0,0,0,0,0,0,0,0,0,0,0,0,0,0,0,0,0,0,0,0,0,0,0,0,0,0,0,0,0,0,0,0,0,0,0,0,0,0,0,0,0,0,0,0,0,0,0,0,0,0,0,0,0,0,0,0,0,0,0,0,0,0,0,0,0,0,0,0,0,0,0,0,0,0,0,0,0,0,0,0,0,0,0,0,0,0,0,0],"id":12,"left_children":[1,3,5,7,9,11,13,15,17,19,21,23,25,27,-1,29,31,33,-1,35,37,39,41,43,45,47,49,51,-1,53,55,-1,-1,-1,-1,57,59,61,63,65,-1,67,69,71,73,75,77,79,81,83,85,87,89,-1,-1,-1,-1,-1,-1,-1,-1,-1,-1,-1,-1,-1,-1,-1,-1,-1,-1,-1,-1,-1,-1,-1,-1,-1,-1,-1,-1,-1,-1,-1,-1,-1,-1,-1,-1,-1,-1],"loss_changes":[1.6603002E-2,1.235339E-2,4.0449314E-3,3.7666974E-3,4.611559E-3,2.9489128E-3,3.967738E-3,3.783449E-3,4.2779278E-4,3.3924058E-3,1.7489053E-3,2.4069073E-3,9.6426625E-4,3.301628E-3,0E0,2.9508658E-3,8.999454E-4,5.0708884E-4,0E0,1.6212407E-3,1.8991902E-3,1.5613461E-3,5.867586E-4,2.0967548E-4,1.4048256E-3,4.743751E-4,1.7125574E-3,2.001835E-3,0E0,3.0168802E-3,1.7638167E-4,0E0,0E0,0E0,0E0,1.1275215E-3,1.2609985E-3,2.0509516E-3,3.0916813E-4,1.0891577E-3,0E0,4.7375425E-4,1.3070353E-3,6.724759E-5,2.2001423E-4,1.6660662E-3,7.357562E-4,4.9462373E-4,2.3554916E-4,5.51831E-4,6.2253996E-4,2.8702617E-4,8.7193586E-4,0E0,0E0,0E0,0E0,0E0,0E0,0E0,0E0,0E0,0E0,0E0,0E0,0E0,0E0,0E0,0E0,0E0,0E0,0E0,0E0,0E0,0E0,0E0,0E0,0E0,0E0,0E0,0E0,0E0,0E0,0E0,0E0,0E0,0E0,0E0,0E0,0E0,0E0],"parents":[2147483647,0,0,1,1,2,2,3,3,4,4,5,5,6,6,7,7,8,8,9,9,10,10,11,11,12,12,13,13,15,15,16,16,17,17,19,19,20,20,21,21,22,22,23,23,24,24,25,25,26,26,27,27,29,29,30,30,35,35,36,36,37,37,38,38,39,39,41,41,42,42,43,43,44,44,45,45,46,46,47,47,48,48,49,49,50,50,51,51,52,52],"right_children":[2,4,6,8,10,12,14,16,18,20,22,24,26,28,-1,30,32,34,-1,36,38,40,42,44,46,48,50,52,-1,54,56,-1,-1,-1,-1,58,60,62,64,66,-1,68,70,72,74,76,78,80,82,84,86,88,90,-1,-1,-1,-1,-1,-1,-1,-1,-1,-1,-1,-1,-1,-1,-1,-1,-1,-1,-1,-1,-1,-1,-1,-1,-1,-1,-1,-1,-1,-1,-1,-1,-1,-1,-1,-1,-1,-1],"split_conditions":[1.7519841E-3,1E0,8.322958E-3,5.622789E-1,1E0,1E0,1.47E2,6.982805E-1,5.808897E-1,5.821502E-4,3.9069363E-1,3E0,3.7696946E-3,6.1720055E-1,-0E0,3.6484545E-1,1E0,1E0,-0E0,4.8546252E-1,1E0,4.0568185E-1,5.9E1,1E0,1.3481365E4,2.4E1,1.0065475E3,1.3621797E-2,-2.9858653E-5,6.076903E-1,3.0715188E-1,-0E0,7.0385955E-4,3.3289043E-4,1.2994882E-3,5.39118E-1,2E0,8.7E1,1.1554732E-3,7.181668E2,4.3403645E-4,4.6727376E-4,3.8959111E3,2.8074524E-1,2.6515058E-1,5.2804497E3,3.0715188E-1,7.268368E1,1.0944214E-3,1E0,2.8E1,3.2662314E2,3E0,4.28109E-5,-1.842296E-4,-1.4256875E-4,-0E0,-5.0521114E-5,1.2526308E-4,3.3347306E-4,8.869641E-6,3.7475425E-6,1.1271133E-4,-3.3336582E-5,-7.955983E-6,1.5760458E-4,-3.0516588E-7,3.355143E-4,8.273054E-5,9.5785205E-4,1.4497196E-4,-4.414356E-5,-0E0,2.2237124E-4,-0E0,1.4461555E-4,3.2792208E-4,-3.1649095E-5,5.2114605E-4,-6.265067E-5,4.668353E-5,-6.773255E-5,1.8988964E-6,8.612795E-5,3.0608027E-4,1.237332E-4,-0E0,-0E0,2.7213208E-4,2.874637E-4,7.29707E-4],"split_indices":[6,7,6,38,19,21,7,82,38,6,45,7,6,81,0,55,30,20,0,38,21,51,7,19,5,2,5,6,0,72,39,0,0,0,0,56,7,7,6,5,0,6,5,41,82,5,39,5,3,15,7,5,25,0,0,0,0,0,0,0,0,0,0,0,0,0,0,0,0,0,0,0,0,0,0,0,0,0,0,0,0,0,0,0,0,0,0,0,0,0,0],"split_type":[0,0,0,0,0,0,0,0,0,0,0,0,0,0,0,0,0,0,0,0,0,0,0,0,0,0,0,0,0,0,0,0,0,0,0,0,0,0,0,0,0,0,0,0,0,0,0,0,0,0,0,0,0,0,0,0,0,0,0,0,0,0,0,0,0,0,0,0,0,0,0,0,0,0,0,0,0,0,0,0,0,0,0,0,0,0,0,0,0,0,0],"sum_hessian":[1.6658284E5,1.4771684E5,1.8865996E4,3.8871504E4,1.0884534E5,1.7403623E4,1.4623723E3,3.8764992E4,1.06514114E2,1.0412482E5,4.7205234E3,6.3590728E3,1.1044551E4,1.0054893E3,4.5688303E2,3.8606613E4,1.5837714E2,9.94621E1,7.052019E0,6.4414918E4,3.9709902E4,3.653308E3,1.0672156E3,9.813877E2,5.377685E3,8.534997E3,2.5095544E3,8.690181E2,1.3647116E2,3.744178E4,1.1648323E3,5.1923004E1,1.0645414E2,7.4194084E1,2.526801E1,6.1858754E4,2.5561619E3,1.4476386E4,2.5233518E4,3.5577427E3,9.556549E1,8.922537E2,1.7496187E2,8.656001E2,1.1578758E2,4.8807637E3,4.9692145E2,6.439785E3,2.0952114E3,8.1923676E2,1.6903176E3,4.080956E2,4.6092252E2,3.686373E4,5.7805145E2,9.206288E2,2.4420355E2,6.1525004E4,3.33751E2,1.3069017E2,2.425472E3,1.2426578E4,2.0498076E3,1.6901404E4,8.332114E3,4.8662122E2,3.0711213E3,1.3298581E2,7.592679E2,3.8635723E1,1.3632614E2,7.5700555E2,1.08594536E2,6.9960434E1,4.5827152E1,4.1826235E3,6.981399E2,4.7257767E2,2.4343767E1,3.6766028E2,6.072125E3,5.8673035E2,1.5084812E3,3.682587E2,4.5097806E2,5.321332E2,1.1581844E3,7.546274E1,3.3263287E2,1.6350162E2,2.974209E2],"tree_param":{"num_deleted":"0","num_feature":"87","num_nodes":"91","size_leaf_vector":"1"}},{"base_weights":[5.7095986E-6,-6.549241E-5,1.2037787E-3,2.6765617E-4,-2.4409987E-4,1.0662947E-3,4.0352186E-3,3.2815125E-4,-8.000379E-4,-3.9291647E-4,-8.6589125E-6,1.2623903E-3,-3.4264787E-4,1.2155351E-3,4.8934864E-3,3.7208482E-4,-8.406659E-4,-9.781305E-4,-0E0,-4.5338963E-4,-0E0,2.434541E-4,-1.7466237E-4,9.837741E-4,2.4654164E-3,-7.2326063E-4,4.435989E-4,-0E0,1.2849573E-3,5.2565606E-3,-0E0,5.3207646E-4,2.5749378E-5,-1.0213252E-3,-0E0,-1.0545633E-3,-0E0,2.6903657E-4,-0E0,-4.6908803E-4,9.082766E-5,-7.919061E-5,2.4761853E-4,1.533085E-4,2.7508656E-3,8.249886E-5,-2.7146452E-4,1.2229778E-3,-0E0,3.6195181E-3,-0E0,-7.894153E-4,-0E0,-0E0,1.1014034E-3,1.5089985E-4,-0E0,-0E0,5.782489E-3,9.4175244E-5,1.961484E-5,-7.228909E-6,4.2740823E-5,-1.2542114E-4,-0E0,-0E0,-5.943249E-6,-1.09793655E-4,-0E0,1.882373E-5,-0E0,8.514229E-5,-0E0,-0E0,-7.9784E-6,-4.8857357E-5,-0E0,5.192252E-5,-1.3427474E-5,9.5710835E-5,-1.2156589E-5,-0E0,1.1269474E-4,8.6725334E-4,1.0030191E-5,-0E0,3.140378E-4,-2.8907505E-5,2.0268427E-4,-5.5253095E-5,1.3909217E-4,-7.919528E-5,6.2362145E-5,3.810647E-4,-0E0,1.8278486E-5,-0E0,-8.5364554E-5,-0E0,-2.8325787E-5,-0E0,1.6202623E-4,-0E0,1.12354326E-4,-0E0,8.6293614E-4,2.8249694E-4],"categories":[],"categories_nodes":[],"categories_segments":[],"categories_sizes":[],"default_left":[0,0,0,0,0,0,0,0,0,0,0,0,0,0,0,0,0,0,0,0,0,0,0,0,0,0,0,0,0,0,0,0,0,0,0,0,0,0,0,0,0,0,0,0,0,0,0,0,0,0,0,0,0,0,0,0,0,0,0,0,0,0,0,0,0,0,0,0,0,0,0,0,0,0,0,0,0,0,0,0,0,0,0,0,0,0,0,0,0,0,0,0,0,0,0,0,0,0,0,0,0,0,0,0,0,0,0],"id":13,"left_children":[1,3,5,7,9,11,13,15,17,19,21,23,25,27,29,31,33,35,37,39,41,43,45,47,49,51,53,-1,55,57,-1,59,61,63,65,67,69,71,73,75,77,-1,79,81,83,85,87,89,91,93,95,97,-1,99,101,-1,-1,103,105,-1,-1,-1,-1,-1,-1,-1,-1,-1,-1,-1,-1,-1,-1,-1,-1,-1,-1,-1,-1,-1,-1,-1,-1,-1,-1,-1,-1,-1,-1,-1,-1,-1,-1,-1,-1,-1,-1,-1,-1,-1,-1,-1,-1,-1,-1,-1,-1],"loss_changes":[1.420498E-2,9.270664E-3,3.1234073E-3,3.4535315E-3,3.5212887E-3,2.5644777E-3,3.4804922E-4,2.5917403E-3,4.7238637E-4,1.4289627E-3,1.6516335E-3,2.306234E-3,3.3701048E-4,8.3231425E-6,2.888022E-4,2.692583E-3,1.7057685E-4,2.2270624E-4,1.640739E-5,4.951991E-4,1.7188075E-3,3.211388E-3,6.1970466E-4,1.4530565E-3,3.689291E-3,2.1259912E-5,1.3003207E-4,0E0,6.012153E-6,2.7424702E-4,0E0,4.527957E-3,6.60528E-4,2.8649566E-4,1.0673718E-6,8.586142E-5,2.8425306E-6,5.0326384E-5,1.0492807E-6,4.6894234E-4,1.6615393E-4,0E0,1.7532633E-3,2.1717718E-3,6.9565424E-3,1.7694758E-3,5.4792326E-4,1.6279309E-3,6.4322556E-4,9.948034E-4,1.2046252E-5,1.0578951E-5,0E0,7.2943308E-6,1.4296682E-4,0E0,0E0,3.331005E-5,6.491607E-4,0E0,0E0,0E0,0E0,0E0,0E0,0E0,0E0,0E0,0E0,0E0,0E0,0E0,0E0,0E0,0E0,0E0,0E0,0E0,0E0,0E0,0E0,0E0,0E0,0E0,0E0,0E0,0E0,0E0,0E0,0E0,0E0,0E0,0E0,0E0,0E0,0E0,0E0,0E0,0E0,0E0,0E0,0E0,0E0,0E0,0E0,0E0,0E0],"parents":[2147483647,0,0,1,1,2,2,3,3,4,4,5,5,6,6,7,7,8,8,9,9,10,10,11,11,12,12,13,13,14,14,15,15,16,16,17,17,18,18,19,19,20,20,21,21,22,22,23,23,24,24,25,25,26,26,28,28,29,29,31,31,32,32,33,33,34,34,35,35,36,36,37,37,38,38,39,39,40,40,42,42,43,43,44,44,45,45,46,46,47,47,48,48,49,49,50,50,51,51,53,53,54,54,57,57,58,58],"right_children":[2,4,6,8,10,12,14,16,18,20,22,24,26,28,30,32,34,36,38,40,42,44,46,48,50,52,54,-1,56,58,-1,60,62,64,66,68,70,72,74,76,78,-1,80,82,84,86,88,90,92,94,96,98,-1,100,102,-1,-1,104,106,-1,-1,-1,-1,-1,-1,-1,-1,-1,-1,-1,-1,-1,-1,-1,-1,-1,-1,-1,-1,-1,-1,-1,-1,-1,-1,-1,-1,-1,-1,-1,-1,-1,-1,-1,-1,-1,-1,-1,-1,-1,-1,-1,-1,-1,-1,-1,-1],"split_conditions":[2.8790676E-3,9.344E3,5.638015E-1,3.2255602E-1,5.821502E-4,1.2193624E4,1.0567E4,3.4295547E-1,1.1554732E-3,3.7199092E-1,1E0,6.395807E-3,1E0,8.213205E2,1.2E1,9E0,8.3168916E-4,1E0,1.3760298E3,3.1026155E-1,2.0343586E-4,3.5515615E-1,5E0,9.9E1,2.9030571E3,1E0,1E0,-0E0,4E0,2E0,-0E0,1E0,1E0,1E1,4.3136716E-1,8.276312E3,1E0,1E0,6.084686E-1,4.1805646E-1,3E0,-7.919061E-5,1E0,2.9715547E-1,3E0,3.5515615E-1,6.0109E-1,2E0,6E0,1E0,9E0,1E0,-0E0,1.2E1,1E0,1.5089985E-4,-0E0,3E0,8E0,9.4175244E-5,1.961484E-5,-7.228909E-6,4.2740823E-5,-1.2542114E-4,-0E0,-0E0,-5.943249E-6,-1.09793655E-4,-0E0,1.882373E-5,-0E0,8.514229E-5,-0E0,-0E0,-7.9784E-6,-4.8857357E-5,-0E0,5.192252E-5,-1.3427474E-5,9.5710835E-5,-1.2156589E-5,-0E0,1.1269474E-4,8.6725334E-4,1.0030191E-5,-0E0,3.140378E-4,-2.8907505E-5,2.0268427E-4,-5.5253095E-5,1.3909217E-4,-7.919528E-5,6.2362145E-5,3.810647E-4,-0E0,1.8278486E-5,-0E0,-8.5364554E-5,-0E0,-2.8325787E-5,-0E0,1.6202623E-4,-0E0,1.12354326E-4,-0E0,8.6293614E-4,2.8249694E-4],"split_indices":[6,4,57,81,6,5,4,57,6,38,25,6,36,5,27,27,6,37,5,54,6,64,27,7,5,13,30,0,25,27,0,25,28,27,57,4,22,8,81,82,25,0,25,51,27,64,56,7,27,18,27,9,0,27,8,0,0,26,27,0,0,0,0,0,0,0,0,0,0,0,0,0,0,0,0,0,0,0,0,0,0,0,0,0,0,0,0,0,0,0,0,0,0,0,0,0,0,0,0,0,0,0,0,0,0,0,0],"split_type":[0,0,0,0,0,0,0,0,0,0,0,0,0,0,0,0,0,0,0,0,0,0,0,0,0,0,0,0,0,0,0,0,0,0,0,0,0,0,0,0,0,0,0,0,0,0,0,0,0,0,0,0,0,0,0,0,0,0,0,0,0,0,0,0,0,0,0,0,0,0,0,0,0,0,0,0,0,0,0,0,0,0,0,0,0,0,0,0,0,0,0,0,0,0,0,0,0,0,0,0,0,0,0,0,0,0,0],"sum_hessian":[1.6518377E5,1.558396E5,9.344168E3,5.419384E4,1.0164575E5,8.946457E3,3.977115E2,5.1377184E4,2.8166562E3,6.201938E4,3.962637E4,7.9158184E3,1.0306382E3,1.2056079E2,2.7715067E2,4.9599086E4,1.7780957E3,2.377764E3,4.388922E2,5.3529652E4,8.4897295E3,1.549338E4,2.413299E4,6.496253E3,1.4195652E3,7.80213E2,2.5042523E2,7.7393394E0,1.1282146E2,2.5050554E2,2.6645145E1,3.3728664E4,1.5870423E4,1.3678918E3,4.1020395E2,2.2456997E3,1.3206432E2,2.2568195E2,2.1321028E2,5.220757E4,1.322082E3,2.116598E3,6.373132E3,1.499522E4,4.9816003E2,6.317432E3,1.7815559E4,5.174707E3,1.3215463E3,9.3968884E2,4.7987634E2,6.8888E2,9.133296E1,1.0344973E2,1.4697551E2,8.4172585E1,2.8648874E1,3.5467464E1,2.1503807E2,1.5061345E4,1.866732E4,1.2557252E4,3.313171E3,1.0888558E3,2.7903595E2,1.09022484E2,3.0118146E2,2.142924E3,1.0277563E2,7.922205E1,5.284226E1,9.105663E1,1.346253E2,4.937124E1,1.6383905E2,5.0090727E4,2.116842E3,6.079721E2,7.1410986E2,2.2734138E3,4.099718E3,1.3008649E4,1.9865708E3,1.4166473E2,3.564953E2,6.134648E3,1.8278464E2,1.7724133E4,9.1424614E1,3.955207E2,4.779186E3,5.382417E2,7.8330457E2,9.161998E2,2.3488981E1,3.5955496E2,1.2032138E2,6.0348694E2,8.53931E1,8.9912056E1,1.3537672E1,1.2183568E2,2.5139824E1,2.5387344E1,1.008012E1,9.136314E1,1.23674934E2],"tree_param":{"num_deleted":"0","num_feature":"87","num_nodes":"107","size_leaf_vector":"1"}},{"base_weights":[9.820421E-7,-9.703777E-5,7.7406416E-4,2.400961E-4,-2.4057642E-4,6.5002986E-4,2.1631175E-3,2.1005643E-4,3.5234226E-3,-2.813844E-4,6.662549E-4,5.596242E-4,2.5642011E-3,1.2618747E-3,5.0562033E-3,2.6555738E-4,-1.0250557E-3,4.66223E-3,1.7748373E-4,-4.0189916E-4,-6.8958114E-5,2.6059782E-3,4.6111242E-4,-4.8334876E-4,6.376415E-4,7.0456984E-3,1.9429825E-3,3.1424584E-3,-0E0,5.426259E-4,-0E0,2.9485757E-4,-1.6256874E-4,-1.1002056E-3,-0E0,5.3228815E-3,-0E0,3.0472656E-4,-0E0,-4.5678756E-4,-1.0801894E-4,1.4562662E-4,-1.9652053E-4,1.1596257E-3,1.0346019E-2,3.5096536E-4,5.087559E-3,9.727773E-4,-6.531068E-4,1.1151114E-3,4.0033073E-4,1.0167844E-2,-0E0,1.3481444E-3,6.1038085E-3,-0E0,3.6477502E-3,3.487794E-4,-1.1921862E-4,1.9601968E-4,-0E0,2.7887587E-5,1.1144966E-3,-1.15072646E-4,-0E0,5.725028E-4,-0E0,3.977855E-5,-0E0,-7.7814184E-5,-4.2737185E-5,2.1347209E-4,-1.5620068E-5,4.5141787E-6,1.5529644E-4,-1.558162E-5,-5.5505057E-5,-3.151271E-5,3.2424313E-4,-0E0,1.905801E-3,8.880473E-6,1.6585794E-4,6.846901E-4,-0E0,-7.4542164E-5,-0E0,7.909227E-5,1.826874E-4,1.2213142E-4,2.4199695E-5,1.1703282E-3,-0E0,1.6562278E-4,-0E0,7.253559E-4,-0E0,4.2193613E-4,-0E0,4.6813486E-5,-0E0,-2.7559881E-5,-0E0],"categories":[],"categories_nodes":[],"categories_segments":[],"categories_sizes":[],"default_left":[0,0,0,0,0,0,0,0,0,0,0,0,0,0,0,0,0,0,0,0,0,0,0,0,0,0,0,0,0,0,0,0,0,0,0,0,0,0,0,0,0,0,0,0,0,0,0,0,0,0,0,0,0,0,0,0,0,0,0,0,0,0,0,0,0,0,0,0,0,0,0,0,0,0,0,0,0,0,0,0,0,0,0,0,0,0,0,0,0,0,0,0,0,0,0,0,0,0,0,0,0,0,0],"id":14,"left_children":[1,3,5,7,9,11,13,15,17,19,21,23,25,27,29,31,33,35,37,39,41,43,45,47,49,51,53,55,57,-1,59,61,-1,63,-1,65,-1,67,-1,69,71,73,75,77,79,81,83,-1,85,87,89,91,-1,93,95,-1,97,99,101,-1,-1,-1,-1,-1,-1,-1,-1,-1,-1,-1,-1,-1,-1,-1,-1,-1,-1,-1,-1,-1,-1,-1,-1,-1,-1,-1,-1,-1,-1,-1,-1,-1,-1,-1,-1,-1,-1,-1,-1,-1,-1,-1,-1],"loss_changes":[1.2676088E-2,7.1403016E-3,2.962768E-3,3.951221E-3,3.7991041E-3,2.6904815E-3,3.2146177E-3,2.905387E-3,9.14922E-4,2.4959845E-3,1.427118E-3,1.3688295E-3,1.127535E-3,2.7525472E-3,1.5153084E-4,2.1779165E-3,2.478956E-4,7.135258E-4,6.0380216E-6,9.6098613E-4,9.976305E-4,2.9816683E-3,1.488163E-3,9.513562E-4,1.6112309E-3,7.367153E-4,8.913756E-4,8.827923E-4,2.7791157E-5,0E0,8.8785135E-5,5.9835464E-3,0E0,1.2265285E-4,0E0,6.19906E-4,0E0,5.524591E-6,0E0,3.788462E-4,9.06348E-4,1.7105835E-3,2.6496727E-4,1.2887081E-3,2.6384154E-3,1.1690583E-3,7.4910873E-4,0E0,1.2597258E-4,8.964874E-4,1.2229774E-3,1.9693282E-5,0E0,3.5858236E-4,4.3549156E-4,0E0,1.1232332E-3,1.3050383E-5,2.927042E-5,0E0,0E0,0E0,0E0,0E0,0E0,0E0,0E0,0E0,0E0,0E0,0E0,0E0,0E0,0E0,0E0,0E0,0E0,0E0,0E0,0E0,0E0,0E0,0E0,0E0,0E0,0E0,0E0,0E0,0E0,0E0,0E0,0E0,0E0,0E0,0E0,0E0,0E0,0E0,0E0,0E0,0E0,0E0,0E0],"parents":[2147483647,0,0,1,1,2,2,3,3,4,4,5,5,6,6,7,7,8,8,9,9,10,10,11,11,12,12,13,13,14,14,15,15,16,16,17,17,18,18,19,19,20,20,21,21,22,22,23,23,24,24,25,25,26,26,27,27,28,28,30,30,31,31,33,33,35,35,37,37,39,39,40,40,41,41,42,42,43,43,44,44,45,45,46,46,48,48,49,49,50,50,51,51,53,53,54,54,56,56,57,57,58,58],"right_children":[2,4,6,8,10,12,14,16,18,20,22,24,26,28,30,32,34,36,38,40,42,44,46,48,50,52,54,56,58,-1,60,62,-1,64,-1,66,-1,68,-1,70,72,74,76,78,80,82,84,-1,86,88,90,92,-1,94,96,-1,98,100,102,-1,-1,-1,-1,-1,-1,-1,-1,-1,-1,-1,-1,-1,-1,-1,-1,-1,-1,-1,-1,-1,-1,-1,-1,-1,-1,-1,-1,-1,-1,-1,-1,-1,-1,-1,-1,-1,-1,-1,-1,-1,-1,-1,-1],"split_conditions":[1.7519841E-3,1.3703967E2,8.322958E-3,5.622789E-1,1E0,1E0,4.348303E-1,4.0964606E-1,2E0,6.018322E-4,8.94675E3,2E0,1.8813008E-3,1.9691239E3,1E0,6.076903E-1,9.944319E-4,1E0,1E0,6.7E1,1E0,3.6856294E-1,3.4507778E-1,1.1585111E3,1E0,3.1902522E-1,4.6101058E-1,9.88195E1,2.649077E3,5.426259E-4,1E0,5.9167004E-1,-1.6256874E-4,1E0,-0E0,1E0,-0E0,1E0,-0E0,1.4543945E-4,9.262596E-5,1.27E2,2.0066544E-2,6.673355E-4,1.1E1,4.0243208E-1,5.3506772E3,9.727773E-4,4.1317213E-1,1E0,6.427601E2,1E0,-0E0,2.6756988E4,5.5140597E-1,-0E0,5.0192004E-1,1.73996E-2,1E0,1.9601968E-4,-0E0,2.7887587E-5,1.1144966E-3,-1.15072646E-4,-0E0,5.725028E-4,-0E0,3.977855E-5,-0E0,-7.7814184E-5,-4.2737185E-5,2.1347209E-4,-1.5620068E-5,4.5141787E-6,1.5529644E-4,-1.558162E-5,-5.5505057E-5,-3.151271E-5,3.2424313E-4,-0E0,1.905801E-3,8.880473E-6,1.6585794E-4,6.846901E-4,-0E0,-7.4542164E-5,-0E0,7.909227E-5,1.826874E-4,1.2213142E-4,2.4199695E-5,1.1703282E-3,-0E0,1.6562278E-4,-0E0,7.253559E-4,-0E0,4.2193613E-4,-0E0,4.6813486E-5,-0E0,-2.7559881E-5,-0E0],"split_indices":[6,5,6,38,19,19,57,81,7,6,4,7,6,5,9,72,6,19,15,7,21,82,59,4,21,45,44,5,4,0,26,72,0,19,0,18,0,35,0,6,6,7,0,6,7,45,5,0,50,28,5,30,0,4,44,0,41,0,19,0,0,0,0,0,0,0,0,0,0,0,0,0,0,0,0,0,0,0,0,0,0,0,0,0,0,0,0,0,0,0,0,0,0,0,0,0,0,0,0,0,0,0,0],"split_type":[0,0,0,0,0,0,0,0,0,0,0,0,0,0,0,0,0,0,0,0,0,0,0,0,0,0,0,0,0,0,0,0,0,0,0,0,0,0,0,0,0,0,0,0,0,0,0,0,0,0,0,0,0,0,0,0,0,0,0,0,0,0,0,0,0,0,0,0,0,0,0,0,0,0,0,0,0,0,0,0,0,0,0,0,0,0,0,0,0,0,0,0,0,0,0,0,0,0,0,0,0,0,0],"sum_hessian":[1.6638522E5,1.4754888E5,1.883634E4,4.3852875E4,1.0369601E5,1.7359684E4,1.476658E3,4.348653E4,3.6634412E2,9.933676E4,4.359249E3,1.6627889E4,7.317949E2,1.1533668E3,3.2329108E2,4.1694688E4,1.791841E3,2.5072737E2,1.1561675E2,6.307887E4,3.6257883E4,3.6919153E2,3.9900576E3,1.067679E3,1.5560209E4,6.8234276E1,6.6356067E2,4.6387668E2,6.894902E2,2.8571426E2,3.757681E1,4.1111484E4,5.8320276E2,1.7600804E3,3.176052E1,2.1730217E2,3.34252E1,1.0358415E2,1.2032599E1,5.2864477E4,1.0214396E4,1.322567E4,2.3032215E4,3.229186E2,4.6272934E1,3.9194338E3,7.062369E1,6.905876E0,1.0607731E3,5.0249375E3,1.0535271E4,3.9369804E1,2.8864471E1,6.027485E2,6.081216E1,5.3525715E1,4.1035095E2,1.661999E2,5.232903E2,2.210686E1,1.5469951E1,4.1061246E4,5.023912E1,1.701466E3,5.8614403E1,2.0662413E2,1.0678034E1,9.5288795E1,8.295356E0,4.146016E3,4.871846E4,1.7026372E2,1.0044133E4,1.2411564E4,8.141055E2,2.093571E4,2.0965046E3,1.614434E2,1.614752E2,2.6077032E1,2.0195904E1,3.329461E3,5.899731E2,5.45239E1,1.6099787E1,1.0407831E3,1.9990032E1,3.5504229E3,1.4745145E3,1.6001212E3,8.93515E3,2.9615637E1,9.754167E0,5.297486E2,7.299988E1,5.1046772E1,9.765389E0,3.695387E2,4.081228E1,1.5136017E2,1.4839741E1,4.8247498E2,4.081527E1],"tree_param":{"num_deleted":"0","num_feature":"87","num_nodes":"103","size_leaf_vector":"1"}},{"base_weights":[5.4106113E-6,-5.204011E-5,1.0865874E-3,-1.10655405E-4,7.895008E-4,1.3556045E-3,5.5988374E-5,1.1005677E-4,-2.544645E-4,9.3802E-4,-0E0,1.6435012E-3,-3.3692537E-5,-6.64317E-5,5.99213E-4,2.6778542E-5,4.5440372E-4,-3.1374622E-4,4.0613668E-5,1.2172962E-3,1.5919308E-4,-4.6068503E-4,8.692226E-4,1.401474E-3,4.224494E-3,-6.990271E-4,1.5991636E-3,-6.709962E-4,2.2456258E-4,7.1684913E-6,1.6100927E-3,7.739355E-4,-5.865944E-5,-3.5805345E-4,-5.8091162E-5,1.1069584E-6,1.6270732E-3,1.5141331E-3,4.1059306E-4,1.6594135E-5,2.2241715E-3,-1.2138074E-3,3.887534E-4,-0E0,1.005161E-3,1.6349949E-3,-3.744799E-5,4.690686E-3,-0E0,-7.6217053E-4,-0E0,2.426977E-3,-0E0,-1.9750681E-3,-0E0,5.2334205E-4,-2.6368324E-4,7.136388E-6,-3.884282E-5,-0E0,5.5327936E-4,6.706479E-5,5.790714E-4,-5.0813822E-5,1.3719596E-5,-4.40175E-5,-2.4275114E-5,5.4950106E-5,-2.174488E-5,-1.4453183E-5,3.353378E-5,-0E0,4.652037E-4,1.6733941E-4,-0E0,1.0467592E-5,4.0591854E-4,2.7776257E-5,-1.967974E-5,3.6082615E-4,-0E0,-1.28735E-4,-0E0,1.2508107E-4,-3.153076E-5,1.17836425E-4,-0E0,1.472413E-4,4.5191977E-4,-0E0,-2.7368218E-5,-0E0,5.063627E-4,-8.7942964E-5,-0E0,3.0200157E-4,-0E0,-2.0172648E-4,-0E0,-1.2512413E-5,-0E0,6.7101115E-5,-0E0,-6.746215E-5,-0E0],"categories":[],"categories_nodes":[],"categories_segments":[],"categories_sizes":[],"default_left":[0,0,0,0,0,0,0,0,0,0,0,0,0,0,0,0,0,0,0,0,0,0,0,0,0,0,0,0,0,0,0,0,0,0,0,0,0,0,0,0,0,0,0,0,0,0,0,0,0,0,0,0,0,0,0,0,0,0,0,0,0,0,0,0,0,0,0,0,0,0,0,0,0,0,0,0,0,0,0,0,0,0,0,0,0,0,0,0,0,0,0,0,0,0,0,0,0,0,0,0,0,0,0,0,0],"id":15,"left_children":[1,3,5,7,9,11,13,15,17,19,21,23,25,27,-1,29,31,33,35,37,39,41,43,45,47,49,51,53,55,57,59,61,63,65,67,69,71,73,75,77,79,81,83,-1,85,87,89,91,-1,93,-1,95,-1,97,99,101,103,-1,-1,-1,-1,-1,-1,-1,-1,-1,-1,-1,-1,-1,-1,-1,-1,-1,-1,-1,-1,-1,-1,-1,-1,-1,-1,-1,-1,-1,-1,-1,-1,-1,-1,-1,-1,-1,-1,-1,-1,-1,-1,-1,-1,-1,-1,-1,-1],"loss_changes":[1.04338555E-2,7.7176737E-3,2.209642E-3,4.7015026E-3,1.1895862E-3,2.819715E-3,1.9251477E-3,1.6146386E-3,1.5961663E-3,1.722733E-3,6.476281E-4,2.908253E-3,1.0869765E-3,3.5805025E-4,0E0,1.2952725E-3,1.884443E-3,8.075079E-4,7.599143E-4,1.2919456E-3,4.6888422E-4,7.5678044E-4,1.1955682E-4,1.8820819E-3,7.074764E-4,3.376286E-5,3.076219E-4,5.013746E-4,1.8527603E-4,1.1470692E-3,3.3900887E-3,2.9432038E-3,4.0027223E-4,5.334141E-4,1.0714326E-3,7.213978E-4,1.025242E-3,1.1685956E-3,1.5478043E-3,1.3341854E-4,4.2388838E-4,9.349664E-5,3.5695411E-4,0E0,5.6904333E-5,1.4900938E-3,2.763355E-5,8.546412E-4,0E0,4.1758205E-5,0E0,3.5168894E-4,0E0,6.640039E-6,3.299344E-6,9.350674E-5,5.28045E-5,0E0,0E0,0E0,0E0,0E0,0E0,0E0,0E0,0E0,0E0,0E0,0E0,0E0,0E0,0E0,0E0,0E0,0E0,0E0,0E0,0E0,0E0,0E0,0E0,0E0,0E0,0E0,0E0,0E0,0E0,0E0,0E0,0E0,0E0,0E0,0E0,0E0,0E0,0E0,0E0,0E0,0E0,0E0,0E0,0E0,0E0,0E0,0E0],"parents":[2147483647,0,0,1,1,2,2,3,3,4,4,5,5,6,6,7,7,8,8,9,9,10,10,11,11,12,12,13,13,15,15,16,16,17,17,18,18,19,19,20,20,21,21,22,22,23,23,24,24,25,25,26,26,27,27,28,28,29,29,30,30,31,31,32,32,33,33,34,34,35,35,36,36,37,37,38,38,39,39,40,40,41,41,42,42,44,44,45,45,46,46,47,47,49,49,51,51,53,53,54,54,55,55,56,56],"right_children":[2,4,6,8,10,12,14,16,18,20,22,24,26,28,-1,30,32,34,36,38,